{"type":"NeuralNetwork","sizes":[600,300,1],"layers":[{"weights":[],"biases":[]},{"weights":[[0.09404163807630539,0.19144542515277863,0.026830188930034637,-0.009240623563528061,-0.07367125898599625,-0.17091816663742065,0.07450851798057556,-0.06323996186256409,0.0725468322634697,0.17926755547523499,-0.19645936787128448,-0.015561364591121674,0.16287711262702942,0.07010303437709808,-0.1926303207874298,0.07708969712257385,0.18734437227249146,0.14750689268112183,0.06541135162115097,0.16956494748592377,-0.13131998479366302,0.08148255944252014,-0.15562713146209717,-0.15288421511650085,-0.19021829962730408,0.12687496840953827,0.11057686805725098,0.006080178078263998,0.0029564269352704287,-0.06758974492549896,0.007764593232423067,-0.12451053410768509,-0.13821813464164734,-0.05633481591939926,-0.0900483950972557,0.10879263281822205,0.07059818506240845,0.029941128566861153,-0.18992732465267181,0.14669786393642426,0.02446824684739113,-0.10130512714385986,0.06979504227638245,-0.08962979912757874,0.1298140585422516,-0.18290072679519653,-0.05158364772796631,0.09222307056188583,-0.12296000123023987,-0.033298738300800323,0.1904388666152954,-0.08370467275381088,-0.014171087183058262,0.12141170352697372,-0.014947090297937393,0.03285890445113182,-0.030112002044916153,0.09181181341409683,0.15663090348243713,-0.07188749313354492,0.19339963793754578,-0.1812584549188614,0.03172542527318001,0.1506647765636444,0.17261913418769836,-0.06924880295991898,0.10258924961090088,-0.05269680917263031,-0.17673532664775848,-0.1808166354894638,0.11095207929611206,-0.16948357224464417,0.05067073926329613,0.1306336522102356,-0.018847178667783737,-0.019905002787709236,0.1550062596797943,0.12770691514015198,0.06068423017859459,-0.19911983609199524,0.19278694689273834,-0.07311088591814041,0.08221607655286789,0.062344372272491455,0.10032377392053604,0.08948810398578644,-0.18627293407917023,-0.19314347207546234,-0.16839008033275604,0.016225842759013176,-0.1373947262763977,-0.15500321984291077,0.1662541776895523,-0.01921965926885605,0.16548287868499756,-0.12223140150308609,0.019572988152503967,0.060666948556900024,0.07287495583295822,0.01672232151031494,-0.1481098234653473,-0.059950973838567734,-0.014660499058663845,-0.024744968861341476,-0.024947382509708405,0.13780349493026733,-0.19040744006633759,-0.17629224061965942,-0.11455796658992767,0.0207815021276474,-0.19118592143058777,0.11337314546108246,-0.05043785274028778,0.1221478134393692,0.06191831827163696,0.07301982492208481,-0.03424122929573059,-0.08180205523967743,0.17316807806491852,-0.05702953413128853,0.03950095921754837,-0.04050976410508156,-0.012303232215344906,-0.037258125841617584,0.00472624646499753,0.08912292867898941,-0.00609239237383008,-0.14286743104457855,0.09902982413768768,-0.026953604072332382,-0.07924287021160126,0.07388198375701904,0.10715337842702866,0.1387256532907486,-0.0810057520866394,0.003146461909636855,-0.06451885402202606,-0.18491363525390625,-0.17422689497470856,-0.049598194658756256,-0.17238973081111908,-0.05568460747599602,0.1297130435705185,-0.1251368224620819,0.15093480050563812,0.11723905056715012,0.10886821150779724,0.07363513112068176,-0.09518295526504517,-0.05792614445090294,-0.06504100561141968,0.12131299078464508,-0.041861869394779205,-0.15108972787857056,0.17563989758491516,-0.13763771951198578,-0.04806476831436157,-0.01565007120370865,0.06289152055978775,0.04802671819925308,-0.14697445929050446,0.08360004425048828,0.19455544650554657,0.06468915194272995,0.03491291031241417,0.021982034668326378,0.14038485288619995,-0.11231377720832825,-0.040080711245536804,-0.18367232382297516,0.14069774746894836,-0.1720574051141739,-0.13056960701942444,0.04525836184620857,0.010341940447688103,-0.1586291342973709,0.04965243488550186,0.17101618647575378,0.11854446679353714,0.15025895833969116,-0.17133253812789917,0.15263032913208008,-0.06171805039048195,0.0050612082704901695,-0.14340424537658691,0.08102855831384659,0.1636686623096466,0.1977313756942749,0.07697366178035736,-0.08795056492090225,0.05618731305003166,0.1125493124127388,-0.09929604083299637,-0.000583745539188385,-0.12892699241638184,0.018994277343153954,0.18408618867397308,0.03613423928618431,-0.11315678060054779,-0.12989866733551025,0.01972687616944313,0.08199525624513626,-0.06061718985438347,0.19684825837612152,0.06002850458025932,-0.08995594084262848,-0.10001145303249359,-0.07352937757968903,0.18827645480632782,0.11082202941179276,-0.14572247862815857,0.17113161087036133,-0.030841676518321037,0.059241462498903275,-0.06199290603399277,0.015498802997171879,0.007399908732622862,-0.11875680834054947,0.15260784327983856,0.014174574054777622,-0.023355336859822273,0.0014455066993832588,0.15687017142772675,-0.11919315904378891,-0.12584534287452698,0.015554932877421379,-0.05228624492883682,0.03976837545633316,0.1097356304526329,-0.055737972259521484,-0.08300910890102386,-0.07649577409029007,-0.1520829200744629,-0.10972192883491516,-0.007926970720291138,0.16066902875900269,-0.057369720190763474,0.1112765520811081,-0.18169844150543213,-0.11152305454015732,-0.12541092932224274,0.17336711287498474,0.13460393249988556,0.09167096763849258,0.09479140490293503,-0.04219244047999382,-0.04250813648104668,0.15400546789169312,-0.08568178117275238,0.09629054367542267,-0.1743694394826889,-0.08727303147315979,0.18476112186908722,-0.0012301085516810417,0.17048579454421997,-0.10691458731889725,0.17700248956680298,0.19836117327213287,0.17040495574474335,-0.04501364380121231,0.11811935156583786,0.17575694620609283,-0.16826185584068298,0.1852007359266281,-0.17353110015392303,0.12891283631324768,0.13473020493984222,-0.1977858990430832,-0.16899773478507996,0.16102556884288788,-0.08186179399490356,-0.00048519016127102077,-0.1876848191022873,0.17751352488994598,-0.06393276900053024,0.06396284699440002,0.04421393200755119,0.059732403606176376,0.06509244441986084,-0.025451356545090675,-0.069627545773983,-0.038880329579114914,-0.06631796807050705,0.1975284069776535,-0.10187918692827225,-0.16414791345596313,0.018606120720505714,0.09181772172451019,0.10030641406774521,0.09481199830770493,0.13134902715682983,-0.014651292935013771,-0.12195784598588943,-0.17986705899238586,-0.12576818466186523,-0.09877646714448929,-0.12696431577205658,0.18297222256660461,0.1106288954615593,0.014570747502148151,0.18863852322101593,0.016545437276363373,0.017206905409693718,0.010115601122379303,0.08669837564229965,-0.1373511254787445,0.032337334007024765,-0.09047289192676544,-0.05948784202337265,-0.09176624566316605,-0.0022654349450021982,0.08038356155157089,0.18205800652503967,-0.016427936032414436,0.13179932534694672,0.14368478953838348,-0.08491552621126175,0.07767797261476517,-0.05783459544181824,0.113918736577034,-0.06872821599245071,0.010108047164976597,0.04287997633218765,-0.13486216962337494,0.0006987189408391714,-0.19314700365066528,-0.019356776028871536,0.13179205358028412,-0.048838719725608826,0.1787969172000885,-0.0742095559835434,-0.10039402544498444,-0.006924244109541178,-0.12692974507808685,0.02947605960071087,0.025445660576224327,-0.06547906994819641,-0.0613318607211113,0.1759006530046463,0.08377294987440109,0.13921530544757843,0.0662122294306755,-0.05167950689792633,-0.09043261408805847,0.1089567095041275,-0.1387152373790741,-0.06602217257022858,-0.033743854612112045,-0.15120519697666168,-0.07895683497190475,-0.15085075795650482,-0.010398570448160172,0.12346566468477249,0.13397328555583954,-0.16138538718223572,-0.12895312905311584,-0.1617419570684433,-0.17050418257713318,0.18878282606601715,-0.18885330855846405,-0.061731498688459396,-0.12735866010189056,0.08425273001194,0.06816588342189789,-0.05564678832888603,-0.10634828358888626,0.06416887044906616,-0.18373066186904907,0.1847924441099167,0.0032253977842628956,0.04646162688732147,0.036588072776794434,-0.19971084594726562,-0.10763317346572876,-0.14842423796653748,-0.19596132636070251,-0.0014951532939448953,-0.06035904213786125,0.037252508103847504,0.17698675394058228,-0.17884162068367004,-0.15446434915065765,-0.14683303236961365,0.13471050560474396,-0.007907792925834656,-0.10075581073760986,0.1556498408317566,0.006815449800342321,-0.10193527489900589,0.06062932685017586,0.005764680448919535,-0.046647295355796814,-0.19027677178382874,-0.1847202628850937,0.09312371164560318,0.0020236109849065542,0.019377456977963448,-0.14267830550670624,-0.0007413940038532019,-0.077696792781353,0.06481445580720901,-0.03965327888727188,0.0795755609869957,-0.011385027319192886,0.07115385681390762,0.08819978684186935,0.10389918833971024,0.14491064846515656,0.14869001507759094,-0.05053342133760452,0.13114963471889496,-0.0054227858781814575,-0.10600101947784424,-0.05649523064494133,0.06843427568674088,0.09242602437734604,-0.04497387632727623,-0.12215162068605423,0.19444097578525543,0.17995387315750122,0.05335462838411331,0.03492778539657593,-0.018687475472688675,-0.06541597098112106,-0.15121367573738098,-0.17477472126483917,0.07467897236347198,0.07800779491662979,0.08556879311800003,-0.01952684111893177,0.15896473824977875,0.004471687600016594,0.09441947191953659,-0.07991664856672287,-0.06292735785245895,-0.062475431710481644,-0.18086151778697968,0.14439089596271515,0.19292284548282623,0.002224094932898879,-0.05630125477910042,-0.12154079228639603,0.15664374828338623,0.18772096931934357,-0.008298568427562714,-0.16969196498394012,0.15869486331939697,-0.12210012227296829,0.122582346200943,-0.17098112404346466,0.15242400765419006,-0.08790494501590729,0.12771274149417877,-0.1564234048128128,0.11225533485412598,-0.10799083858728409,-0.042113419622182846,0.12501180171966553,0.04031125083565712,0.09317044913768768,-0.11921624839305878,0.008009864948689938,0.19305317103862762,0.10984338074922562,0.006353269796818495,0.07568487524986267,-0.17597201466560364,-0.04444433003664017,-0.05100718140602112,0.17157357931137085,0.16488373279571533,-0.17887301743030548,-0.15371032059192657,0.018406134098768234,0.033228397369384766,-0.052078090608119965,-0.06193415820598602,-0.1299552321434021,-0.13688796758651733,-0.08133409917354584,-0.163015678524971,-0.10442732274532318,0.1882203072309494,0.10758352279663086,0.09169214218854904,0.15425880253314972,-0.08335036784410477,0.011032208800315857,0.05209491029381752,0.08418658375740051,0.05768364295363426,-0.16508746147155762,0.13479340076446533,0.16428938508033752,-0.0108098853379488,0.17209097743034363,0.03847885504364967,0.1363135129213333,0.1036149263381958,-0.09210928529500961,0.1501026302576065,0.027322301641106606,-0.16052401065826416,-0.10258566588163376,0.05896618589758873,-0.141780287027359,0.14894677698612213,-0.16878175735473633,0.08085767924785614,0.0887819305062294,0.08449210226535797,0.09554265439510345,-0.18510714173316956,-0.07854056358337402,-0.13381431996822357,0.09949859976768494,0.15102002024650574,-0.11574409157037735,-0.1726415753364563,0.04104093462228775,0.11267882585525513,0.028880108147859573,-0.09412173926830292,0.09651496261358261,-0.18113099038600922,0.1989845484495163,-0.08706537634134293,-0.007588873151689768,0.09324009716510773,-0.06850072741508484,-0.07458993047475815,0.002046800684183836,-0.052327703684568405,-0.11560229957103729,-0.09197071939706802,-0.12875774502754211,-0.053686656057834625,0.1428348869085312,0.14954626560211182,-0.013864734210073948,-0.0933133140206337,-0.16448712348937988,-0.027707278728485107,0.09817885607481003,-0.17779651284217834,-0.14407598972320557,-0.0926433876156807,-0.18516972661018372,0.04365004599094391,-0.02330346591770649,-0.10494709759950638,-0.08018088340759277,-0.16974318027496338,-0.04409006983041763,-0.18632857501506805,0.06681636720895767,-0.13792245090007782,-0.06433682888746262,-0.040900129824876785,0.13758869469165802,-0.0756804496049881,-0.15105177462100983,0.09498757869005203,0.03424860164523125,-0.1470000296831131,-0.08015847206115723,-0.10866425931453705,-0.1462354063987732,-0.10000652819871902,0.12009858340024948,0.1551767885684967,0.1438172310590744,-0.0063414922915399075,0.14923956990242004,0.07364974170923233,0.19247238337993622,0.11032026261091232,-0.05567234009504318,0.15398600697517395,-0.0023468134459108114,-0.08776412904262543,0.04355767369270325,-0.13291220366954803,0.19415026903152466,0.09397260844707489,0.02899555303156376,0.01627867855131626,-0.17606958746910095,0.06324077397584915,-0.05416622385382652,-0.12163058668375015,-0.0402006134390831,0.13529622554779053,-0.14256198704242706,0.02900831028819084,-0.15699173510074615,-0.01414807140827179,0.1886495053768158,0.07106929272413254,0.047871485352516174],[-0.1465797871351242,0.07953372597694397,0.08854924142360687,-0.06216920167207718,0.15321746468544006,-0.1956920325756073,-0.11834302544593811,0.013147866353392601,0.15643775463104248,-0.138266459107399,-0.0002696163428481668,-0.032968178391456604,-0.1562241017818451,-0.13713358342647552,0.10378365218639374,-0.03090484067797661,0.10604121536016464,0.03856536000967026,0.18029683828353882,0.13625672459602356,0.1512470543384552,-0.10880293697118759,0.14453816413879395,-0.054484426975250244,0.16295573115348816,-0.05916266888380051,-0.17626434564590454,0.1430203765630722,-0.1746862530708313,0.1947198510169983,0.12332134693861008,-0.054893139749765396,-0.05331369489431381,-0.19685879349708557,-0.15736530721187592,-0.07411102205514908,0.06305913627147675,0.18281054496765137,0.19648706912994385,-0.05089457705616951,-0.12519781291484833,-0.16214965283870697,0.13221721351146698,-0.09704973548650742,0.10366441309452057,0.1050906777381897,0.16522659361362457,0.15087947249412537,-0.11171606928110123,0.03458458557724953,0.0026832190342247486,-0.14643840491771698,-0.13262245059013367,0.001155545120127499,-0.18129627406597137,0.04921870678663254,0.14091449975967407,0.15448397397994995,0.09633791446685791,-0.035809412598609924,0.1909576654434204,0.1628289818763733,-0.0538015216588974,0.008223066106438637,-0.003512113355100155,-0.18746547400951385,0.17423684895038605,-0.08457481116056442,-0.13504020869731903,0.03281745687127113,0.13771340250968933,0.03564900532364845,0.0338132306933403,0.18151506781578064,-0.11608236283063889,0.05212566256523132,0.10092150419950485,0.19062966108322144,0.06345021724700928,0.08917950838804245,-0.11308569461107254,0.1336684376001358,0.19693246483802795,0.048896919935941696,0.10139716416597366,0.12391731888055801,0.07405341416597366,-0.15715458989143372,-0.1098344549536705,-0.020369896665215492,-0.0722004845738411,0.006766636390239,0.10964341461658478,0.13056491315364838,0.10622309893369675,-0.15491589903831482,0.06683413684368134,-0.1746467798948288,0.0016794316470623016,-0.16121360659599304,-0.13247482478618622,-0.10451182723045349,-0.07683476060628891,-0.10772489011287689,-0.11267536878585815,-0.04330509155988693,0.030821597203612328,0.09890862554311752,-0.15917529165744781,-0.18475382030010223,-0.05191520228981972,-0.05931558459997177,0.037493254989385605,0.15042705833911896,0.040463779121637344,0.1299334317445755,0.1270793229341507,-0.19752416014671326,0.19944201409816742,0.1978314369916916,0.004973006434738636,-0.14481985569000244,0.03361989185214043,0.02338009886443615,0.06089133769273758,0.08522101491689682,0.1351548582315445,-0.18760965764522552,-0.07005097717046738,-0.14868728816509247,0.12322243303060532,-0.17254295945167542,-0.0274802353233099,-0.1655971258878708,-0.16762545704841614,-0.15635646879673004,0.01038758922368288,-0.1833968311548233,-0.0967540368437767,0.17179501056671143,0.12768003344535828,-0.05403745919466019,-0.18400709331035614,0.11888597160577774,0.03754040598869324,0.0023139873519539833,0.1792212873697281,0.15592721104621887,0.17856144905090332,-0.17561616003513336,0.010713362134993076,-0.07268310338258743,-0.07642810046672821,-0.10971612483263016,-0.010932346805930138,-0.01077574584633112,0.1908312290906906,-0.004977083299309015,-0.09068542718887329,-0.1122608631849289,-0.01671571657061577,-0.0036613373085856438,-0.011329391971230507,-0.12551531195640564,-0.11606700718402863,-0.12907256186008453,-0.067946657538414,-0.06552065908908844,-0.11786655336618423,-0.13758935034275055,0.012587862089276314,-0.11879121512174606,-0.1605743169784546,-0.17365239560604095,-0.04629362002015114,0.19580256938934326,0.16355836391448975,-0.06380394846200943,0.0695531889796257,-0.08557521551847458,0.1558648645877838,0.04091058671474457,0.19511763751506805,0.12054608762264252,0.1991014927625656,-0.007360444869846106,-0.005553532857447863,-0.13936638832092285,-0.0046930331736803055,-0.07607778906822205,-0.038918908685445786,0.013209229335188866,-0.17044249176979065,-0.08873219788074493,0.12033408135175705,-0.09585672616958618,0.17247354984283447,0.005925664212554693,0.10828398168087006,-0.1633029282093048,0.02913147211074829,0.005395508836954832,0.17015790939331055,0.1347479671239853,-0.13079394400119781,0.141947939991951,0.1685338020324707,0.17838381230831146,0.01962168700993061,0.07774128019809723,0.10871591418981552,-0.14185026288032532,0.03685562312602997,-0.08857303112745285,-0.18923059105873108,0.13167135417461395,-0.0986686423420906,-0.19300587475299835,0.09643702208995819,0.015047225169837475,0.15848688781261444,0.13583311438560486,0.1571236103773117,0.0023595192469656467,0.18601015210151672,-0.11947282403707504,-0.1552618145942688,0.14206314086914062,-0.158403217792511,0.013773455284535885,-0.02882981300354004,0.07733628153800964,-0.11429443955421448,0.09114176034927368,-0.10792719572782516,0.1560874581336975,0.19064517319202423,-0.16471600532531738,-0.07476069033145905,0.13153241574764252,-0.03442993387579918,-0.19712349772453308,0.07492007315158844,0.10103680938482285,-0.17367999255657196,0.14225807785987854,0.02630097232758999,-0.14727723598480225,0.07249484956264496,0.10145436972379684,-0.17049872875213623,-0.06622469425201416,-0.0375526063144207,-0.19326834380626678,0.14759086072444916,-0.016179004684090614,0.1283016949892044,-0.10118739306926727,0.02462279237806797,-0.13735276460647583,0.09336228668689728,-0.025934839621186256,0.19557800889015198,0.12276451289653778,-0.17349418997764587,0.17495085299015045,0.09038940817117691,-0.00255021289922297,0.15377432107925415,0.18529726564884186,0.08183573186397552,-0.07792143523693085,-0.0950930267572403,-0.16126951575279236,0.0007373265107162297,-0.0687955990433693,-0.08018423616886139,-0.19070662558078766,0.15609396994113922,0.004804391413927078,-0.008735652081668377,0.16897253692150116,0.16334474086761475,0.07743090391159058,0.028061045333743095,0.17892016470432281,-0.0525052435696125,0.1527109295129776,-0.06230469048023224,-0.10263440757989883,0.08248719573020935,-0.026498226448893547,0.18020863831043243,0.09724307805299759,-0.1152694970369339,-0.0039135473780334,-0.0029790301341563463,-0.16455335915088654,-0.06342504918575287,-0.039891570806503296,0.06952045857906342,-0.054965514689683914,-0.06311900168657303,0.11374453455209732,0.025880148634314537,-0.014847937971353531,-0.18039356172084808,0.10150383412837982,0.06753184646368027,0.1592196673154831,0.10123594105243683,-0.11037577688694,-0.10858217626810074,0.14266972243785858,0.04985082149505615,-0.16612766683101654,0.142747700214386,-0.04296586290001869,0.01833263412117958,-0.19372396171092987,-0.19355370104312897,0.004197574220597744,-0.023374320939183235,0.11864777654409409,0.12167837470769882,-0.058274634182453156,0.19821283221244812,0.10748397558927536,0.1294918954372406,0.10241445899009705,0.03834741190075874,-0.05543036386370659,-0.13003745675086975,-0.08458403497934341,0.1958916038274765,-0.0659482553601265,0.07127680629491806,0.1075177788734436,0.03379859775304794,-0.14897358417510986,-0.015058337710797787,0.006491843611001968,0.09988204389810562,-0.1666804701089859,-0.07455253601074219,-0.004878176376223564,0.10854439437389374,-0.021630391478538513,0.17381764948368073,0.18737460672855377,-0.19188779592514038,-0.007088492624461651,-0.006493805907666683,-0.11849230527877808,-0.06283611804246902,0.07340096682310104,0.041072387248277664,0.16592897474765778,-0.17315609753131866,-0.10739022493362427,0.05067131668329239,0.12421080470085144,0.16286084055900574,-0.0852121114730835,0.09799547493457794,-0.032098885625600815,0.012423149310052395,0.1481950432062149,-0.12178733944892883,-0.017784137278795242,-0.10083372890949249,0.1711878627538681,0.015750281512737274,0.13279111683368683,0.08341369032859802,0.14456413686275482,-0.031043147668242455,0.1284344345331192,0.12696540355682373,-0.0031939747277647257,0.022434115409851074,0.10284583270549774,-0.1760120689868927,0.028899114578962326,0.11199194937944412,-0.06073017045855522,-0.1584654152393341,0.1671721339225769,-0.06049400940537453,-0.19238191843032837,0.04641341045498848,0.11503884196281433,0.0653473362326622,-0.1543075293302536,0.06461663544178009,-0.10301873832941055,0.08919249475002289,-0.10181780904531479,0.12621137499809265,0.1403793841600418,0.007926251739263535,0.02302965335547924,0.04680946469306946,0.09872530400753021,-0.18956555426120758,0.04391651973128319,-0.14801403880119324,0.14046427607536316,-0.19465728104114532,0.16412869095802307,-0.004126711282879114,-0.10221854597330093,-0.17551377415657043,-0.19734328985214233,-0.12205447256565094,0.08970563858747482,-0.03672648221254349,0.18052315711975098,-0.1602962762117386,-0.02021462470293045,0.005758615210652351,-0.03985702618956566,0.07603427767753601,-0.07424990832805634,0.052591193467378616,-0.028806515038013458,-0.051411695778369904,-0.15144233405590057,0.13839133083820343,-0.12582026422023773,0.03916742652654648,-0.11783883720636368,-0.10365363955497742,-0.030318574979901314,-0.015245812013745308,-0.13837116956710815,-0.035716235637664795,-0.1793084442615509,-0.16866834461688995,0.17583060264587402,-0.11121831834316254,0.19509106874465942,0.07022792845964432,-0.12224333733320236,-0.13329268991947174,0.10412038862705231,0.16839952766895294,0.1343054324388504,0.1950630098581314,-0.13238973915576935,-0.12563887238502502,0.012150169350206852,-0.06543970108032227,0.11485667526721954,0.18353702127933502,-0.1886553168296814,-0.007608054205775261,-0.0593777596950531,-0.14846563339233398,-0.028570838272571564,-0.12396137416362762,0.010042517445981503,-0.0863649845123291,-0.08719460666179657,0.19575528800487518,-0.17621980607509613,0.10845614224672318,0.023289598524570465,-0.05124973878264427,-0.0007402095361612737,-0.1401166021823883,-0.15588730573654175,0.01594284549355507,0.19890820980072021,-0.08306511491537094,0.07823538780212402,0.11383739113807678,-0.1476135551929474,0.13047000765800476,-0.15956945717334747,-0.13660192489624023,0.13251547515392303,-0.19595499336719513,0.18279977142810822,-0.05151120945811272,0.06438007205724716,0.064729705452919,0.1982271671295166,0.13797758519649506,0.1046530231833458,-0.1571182757616043,-0.09960424154996872,0.05515274778008461,0.12054067850112915,-0.08712362498044968,-0.05674343556165695,-0.061703477054834366,0.1715650111436844,-0.1866612583398819,-0.019503232091665268,0.07175520807504654,0.05512959882616997,0.14474734663963318,0.05384764075279236,-0.008820246905088425,-0.14292702078819275,-0.12890318036079407,-0.14816126227378845,-0.10193934291601181,0.14499732851982117,0.1967206597328186,0.011685068719089031,-0.14078138768672943,0.033067189157009125,-0.19814945757389069,-0.04906978830695152,0.0461360439658165,0.19584298133850098,-0.04257459565997124,-0.03675127401947975,0.0825515165925026,0.08159010112285614,0.08358787000179291,-0.11118735373020172,0.10478440672159195,-0.10871497541666031,0.11697698384523392,-0.04384705796837807,0.036506712436676025,0.17303653061389923,0.12944935262203217,0.16446556150913239,0.11595472693443298,0.09401638805866241,-0.06812433898448944,0.18151818215847015,-0.1984909176826477,-0.05769249424338341,0.1156994104385376,0.024670034646987915,-0.06730040907859802,0.019652001559734344,-0.05242578685283661,0.04200860485434532,0.002188171027228236,-0.029732871800661087,0.07493998110294342,0.12248873710632324,0.14434832334518433,0.004732206463813782,0.1241234540939331,0.192129984498024,0.002308879280462861,-0.15986517071723938,-0.1342863291501999,0.10872817039489746,-0.1839480996131897,-0.12374605983495712,-0.046548206359148026,-0.03853997215628624,-0.09387582540512085,-0.10063280910253525,0.02246513031423092,0.009673605673015118,-0.08560289442539215,0.17470704019069672,-0.19511759281158447,0.19163532555103302,0.16513033211231232,0.04937727749347687,0.1195063441991806,-0.13522040843963623,0.13191190361976624,-0.1371236890554428,0.08677326887845993,0.045611001551151276,0.02606428787112236,-0.1321960836648941,-0.051610808819532394,-0.13246682286262512,-0.05630864202976227,-0.011298845522105694,0.1086428090929985,0.021884404122829437,0.11467373371124268,-0.1253577470779419,0.12427421659231186,-0.03791467845439911,0.016897255554795265,0.08143936842679977,-0.19488319754600525,0.00512791657820344,0.1606454998254776,-0.10418189316987991,-0.14470615983009338,-0.17330284416675568,-0.023331008851528168,0.16605184972286224,0.14988547563552856,-0.1949867159128189],[-0.09747330844402313,0.1891670525074005,-0.04737549647688866,-0.1221897304058075,-0.04706105217337608,0.12784111499786377,-0.15609818696975708,-0.009659161791205406,0.07369565218687057,0.023909395560622215,-0.08055737614631653,-0.13477063179016113,0.06338004022836685,-0.045871932059526443,-0.05067064240574837,-0.07842190563678741,-0.07488507032394409,0.034688785672187805,-0.10370073467493057,-0.1172899454832077,0.047655943781137466,-0.0421937070786953,-0.18980517983436584,0.023242421448230743,-0.016393089666962624,-0.12401052564382553,-0.19948533177375793,-0.07424162328243256,0.16399529576301575,-0.1586998701095581,0.09658161550760269,-0.009932715445756912,0.0748949721455574,0.13458919525146484,0.07955598086118698,0.038129329681396484,-0.05277196317911148,0.14982423186302185,-0.07147255539894104,-0.09725924581289291,0.05028184503316879,0.14318567514419556,0.09846838563680649,0.15286405384540558,0.11040843278169632,-0.03306740149855614,0.03370553255081177,0.1408594250679016,0.19829080998897552,0.10609125345945358,-0.08151119202375412,-0.05607486516237259,0.06289924681186676,0.1491035521030426,0.0034962156787514687,0.07238259166479111,-0.03353055566549301,-0.009857953526079655,-0.14133033156394958,0.18466638028621674,0.16383148729801178,-0.015455846674740314,-0.052749644964933395,0.03574460744857788,-0.16928082704544067,-0.10586177557706833,-0.15415357053279877,0.15545342862606049,-0.03140198811888695,0.023237992078065872,0.08659149706363678,-0.04980801045894623,-0.1694307029247284,0.1056845486164093,0.12368769943714142,0.11010850965976715,-0.13107670843601227,0.18054170906543732,-0.0898660346865654,0.0662195235490799,-0.06270691007375717,-0.11591077595949173,0.1484140306711197,-0.004900141153484583,0.13453122973442078,0.018421227112412453,0.1281542032957077,-0.1696905493736267,0.13326416909694672,0.1993853747844696,0.038102470338344574,-0.1823025941848755,0.13792501389980316,-0.19980092346668243,0.08367636054754257,0.17921963334083557,0.04228309914469719,-0.03481106832623482,0.04274522885680199,-0.06520425528287888,0.021456275135278702,-0.02424747683107853,-0.07041054964065552,-0.09547141194343567,0.14078029990196228,-0.014419510960578918,0.083950474858284,-0.10959706455469131,-0.08237916231155396,-0.1850840300321579,-0.0992451161146164,-0.1273985207080841,-0.022137779742479324,0.12527921795845032,-0.08095335960388184,-0.09522290527820587,0.1099967360496521,0.03419361263513565,-0.14408747851848602,0.021281158551573753,-0.05178685486316681,0.026130450889468193,0.02143198251724243,-0.07839339971542358,-0.07927782088518143,0.16283735632896423,-0.133329838514328,-0.12773919105529785,-0.013706471771001816,0.1750342696905136,0.10597959905862808,-0.13194483518600464,0.14625345170497894,-0.08111878484487534,0.02774357795715332,0.03848620876669884,0.08870390057563782,0.07891872525215149,0.194783017039299,-0.12847474217414856,-0.1401231288909912,-0.19862331449985504,0.19083790481090546,-0.02111227437853813,0.08309198915958405,-0.06247631832957268,-0.1358247846364975,-0.06795520335435867,0.062208883464336395,0.03716394305229187,-0.1586887687444687,-0.020854473114013672,-0.05728243663907051,0.18623284995555878,-0.09567580372095108,-0.09047913551330566,0.02604377642273903,0.034419070929288864,0.0246246587485075,0.024803094565868378,-0.02465822920203209,0.11745453625917435,0.14552098512649536,-0.09378078579902649,0.017755655571818352,0.000540820590686053,-0.16165699064731598,-0.1979786604642868,0.10265401750802994,-0.06069185212254524,0.1255469024181366,0.08431707322597504,0.012538954615592957,0.1363588273525238,-0.16784976422786713,-0.1235484629869461,0.1730097234249115,-0.013324372470378876,-0.06307397782802582,-0.16338734328746796,0.16824549436569214,-0.04319121316075325,-0.0470585860311985,0.05600965768098831,0.16373677551746368,-0.1214955598115921,-0.04741779714822769,-0.17382730543613434,-0.11486753076314926,0.12124404311180115,0.10780125856399536,-0.028357869014143944,-0.09102526307106018,-0.07426140457391739,-0.1692192554473877,0.0018219357589259744,0.16931454837322235,-0.1094166561961174,0.177048921585083,0.042317263782024384,-0.042890019714832306,-0.1476835310459137,-0.02474154345691204,0.1035088300704956,0.18570509552955627,-0.0015775065403431654,0.1701676994562149,-0.16812331974506378,-0.07052041590213776,-0.08415355533361435,0.04681384563446045,-0.17653098702430725,-0.08100166916847229,0.11926167458295822,-0.08352552354335785,0.12268539518117905,-0.002330971881747246,0.01829582452774048,0.011400768533349037,0.10334157198667526,0.1866561770439148,0.18509215116500854,0.04814360663294792,0.09079517424106598,0.042872894555330276,0.17624329030513763,-0.07292717695236206,-0.025188645347952843,0.04099491611123085,0.06727324426174164,0.07566382735967636,-0.13260282576084137,0.08551617711782455,-0.14664188027381897,0.15178176760673523,0.14725476503372192,0.11576075106859207,0.06074999272823334,0.12427781522274017,0.18623149394989014,0.17331117391586304,-0.11762732267379761,0.11226402223110199,0.1803714781999588,0.17693489789962769,-0.06251204758882523,0.03175679221749306,-0.04617130011320114,0.07677232474088669,0.09073259681463242,0.028828077018260956,-0.05742471292614937,0.005061640404164791,-0.12278418987989426,-0.18135172128677368,0.19347676634788513,0.09393440932035446,-0.10327436774969101,-0.04331398382782936,-0.13016274571418762,0.17873996496200562,-0.13418173789978027,0.16245628893375397,-0.04615394026041031,0.1379067599773407,-0.12694041430950165,0.07253958284854889,-0.19413936138153076,-0.1022539809346199,-0.013596425764262676,0.1323479413986206,-0.1718832105398178,0.18532969057559967,-0.14927774667739868,0.0479193814098835,-0.12517845630645752,-0.17866045236587524,0.17548884451389313,-0.035898324102163315,-0.07294336706399918,0.07950437068939209,0.039121270179748535,-0.010485347360372543,0.15776118636131287,-0.1029105857014656,-0.16156908869743347,0.16288118064403534,-0.10104957222938538,-0.047166503965854645,0.14381325244903564,-0.09016294777393341,0.1489238440990448,0.08808483183383942,-0.11287785321474075,0.17758385837078094,-0.1678701937198639,0.131971076130867,-0.09486143290996552,-0.05845228210091591,0.0755392387509346,0.15762367844581604,0.12441876530647278,0.11532901972532272,0.023363806307315826,0.13904426991939545,-0.07777852565050125,0.004062036518007517,-0.10844407230615616,0.07922110706567764,-0.139321967959404,-0.16539189219474792,0.1691475361585617,-0.04008786007761955,-0.05490051209926605,-0.17142777144908905,0.1768219769001007,0.1087094396352768,0.08675611019134521,-0.029384035617113113,-0.020272938534617424,-0.0451827310025692,-0.12314891070127487,0.04291590675711632,-0.15337000787258148,-0.02404947392642498,-0.15890935063362122,-0.056980933994054794,0.18792523443698883,0.14197251200675964,0.12063845992088318,0.11972746253013611,-0.13974174857139587,-0.17090944945812225,0.0024144987110048532,0.0036089930217713118,-0.17720508575439453,-0.18331944942474365,-0.07932914048433304,0.09863657504320145,-0.13365274667739868,0.025165129452943802,0.04319015145301819,0.09958738088607788,0.15514124929904938,0.1846432089805603,-0.061896976083517075,-0.14182278513908386,-0.07825292646884918,0.01539344247430563,-0.19813667237758636,0.14245592057704926,0.19226804375648499,-0.18897800147533417,0.06429902464151382,-0.13887354731559753,-0.19098259508609772,0.14683203399181366,-0.012393537908792496,0.10434848815202713,0.1009807363152504,0.16812948882579803,-0.07568062096834183,-0.12188159674406052,0.05903782323002815,0.05067239701747894,-0.013613726943731308,0.12606091797351837,0.16819792985916138,-0.17224334180355072,-0.07545500993728638,-0.09810752421617508,0.11387275904417038,-0.17403952777385712,-0.12077026814222336,-0.08321025967597961,0.1502443552017212,0.0790410116314888,-0.16303156316280365,-0.1967240571975708,-0.003405742347240448,0.009701966308057308,0.0405254065990448,0.1210109144449234,-0.1312500685453415,0.018901463598012924,0.07129507511854172,0.08636396378278732,-0.03899276256561279,-0.10960736870765686,-0.17913082242012024,-0.07966144382953644,0.07981032878160477,-0.1672019064426422,-0.1528388112783432,-0.005355049856007099,-0.18200242519378662,-0.06614860892295837,0.06495585292577744,0.057918183505535126,0.016011549159884453,0.056864190846681595,0.10357889533042908,0.01707582175731659,-0.13470681011676788,0.17341767251491547,-0.02864038199186325,0.14984852075576782,0.06423826515674591,-0.07046885043382645,-0.07479579001665115,0.11567381769418716,0.18593479692935944,-0.1981537640094757,0.1518237590789795,0.07577258348464966,0.07446565479040146,-0.09734442830085754,0.1417776197195053,-0.1112063080072403,-0.05709163099527359,-0.0742483139038086,-0.06666446477174759,0.15151409804821014,0.17300622165203094,-0.15797056257724762,0.18365740776062012,0.028768276795744896,0.14682544767856598,-0.1442551463842392,-0.12066875398159027,-0.1512771099805832,-0.11677007377147675,-0.1858857125043869,0.05056922882795334,0.17530037462711334,0.17583930492401123,-0.0661429688334465,-0.10675646364688873,0.04705638438463211,-0.19198113679885864,-0.11800052225589752,0.09588916599750519,0.13098670542240143,0.08393678069114685,0.13099879026412964,-0.14590714871883392,0.06443144381046295,-0.06280170381069183,0.007140659261494875,-0.05296408757567406,-0.016220059245824814,0.041829951107501984,0.18398672342300415,0.023251861333847046,0.15786737203598022,-0.08931993693113327,0.1597464233636856,-0.03704644367098808,0.041982416063547134,0.1576891392469406,0.17675355076789856,0.11728281527757645,-0.11689095199108124,-0.18684382736682892,-0.07714994251728058,-0.0553986020386219,-0.1471344381570816,0.04413437098264694,-0.14749857783317566,-0.004275238141417503,-0.15242446959018707,0.11078217625617981,0.07984992861747742,0.016611527651548386,0.18678173422813416,-0.13896453380584717,-0.12670063972473145,0.02274921163916588,-0.13881877064704895,-0.14099891483783722,0.1014937311410904,-0.1268540471792221,-0.12094522267580032,-0.1859053075313568,-0.09935024380683899,0.19808003306388855,0.05661344900727272,-0.1623968929052353,0.1057426705956459,-0.16548505425453186,-0.03984815254807472,-0.1156972274184227,-0.14354971051216125,0.1872018277645111,-0.17472682893276215,0.19436593353748322,0.04805171117186546,0.012749000452458858,0.10977190732955933,-0.019015491008758545,0.13255712389945984,-0.010704714804887772,0.1764134168624878,0.12837159633636475,-0.1725989729166031,0.19442817568778992,0.10058213025331497,-0.055005721747875214,0.1672496497631073,-0.08410215377807617,0.16041089594364166,0.12672898173332214,0.10179457813501358,-0.17841801047325134,-0.03389665484428406,0.06988386064767838,0.11959662288427353,0.010318942368030548,0.0771116241812706,0.10647544264793396,0.03638762980699539,0.11874759942293167,0.1415397822856903,-0.18499812483787537,0.09651800990104675,-0.11088249087333679,-0.08708129823207855,0.19513295590877533,0.13209883868694305,-0.11570005118846893,-0.12621571123600006,-0.0910697728395462,-0.16707947850227356,0.17718636989593506,0.10311976075172424,-0.17276811599731445,0.17494775354862213,0.06756841391324997,-0.1680295318365097,-0.08219342678785324,0.04905055835843086,0.040362611413002014,-0.025245551019906998,-0.05850636214017868,0.12626385688781738,0.19555790722370148,-0.007143386173993349,0.14322583377361298,0.0063002207316458225,0.08224177360534668,0.10728564113378525,-0.07616337388753891,0.1886429488658905,0.13957221806049347,0.10185202956199646,-0.026618745177984238,-0.06736121326684952,-0.07354743778705597,0.09990151971578598,0.16476526856422424,0.12649032473564148,-0.04379957541823387,0.06309609860181808,-0.16490760445594788,-0.06339593231678009,0.08147835731506348,0.07929269224405289,-0.16232562065124512,0.11816947162151337,0.007099072448909283,-0.1405060589313507,0.038608942180871964,-0.1592150330543518,0.004995679948478937,-0.12917988002300262,-0.07582612335681915,0.179489403963089,-0.1550273597240448,-0.06552024930715561,0.07497138530015945,0.17419271171092987,0.0783323273062706,0.05721311271190643,-0.08961418271064758,-0.009013195522129536,0.1057119369506836,-0.034847792237997055,0.03750225156545639,0.08037706464529037,0.13560304045677185,0.19791066646575928,0.19067448377609253,0.08493684232234955,-0.07128505408763885,-0.16915307939052582,0.012045086361467838,-0.1995536983013153,-0.0010924353264272213,0.007174252532422543,0.0009501209715381265],[-0.19481320679187775,-0.06100211665034294,0.06316680461168289,-0.02273871935904026,0.03264223411679268,0.13930770754814148,-0.10670574009418488,-0.17048998177051544,-0.05079515278339386,-0.17827437818050385,0.19461096823215485,0.16571612656116486,-0.04708067327737808,-0.0232038926333189,0.023061972111463547,0.05935417860746384,0.1337634027004242,-0.08618372678756714,0.19012552499771118,-0.14518368244171143,-0.07887975871562958,0.14975088834762573,-0.08095627278089523,-0.08937645703554153,-0.055358823388814926,-0.07087596505880356,0.16496381163597107,0.12482597678899765,-0.14237356185913086,0.03893740102648735,-0.10645391792058945,-0.07729311287403107,-0.0840243250131607,0.038970738649368286,-0.06982924789190292,-0.15646715462207794,0.09803790599107742,-0.06359148025512695,0.09005710482597351,0.0924333706498146,-0.06502454727888107,-0.055813517421483994,0.029380159452557564,-0.062257975339889526,-0.197305828332901,-0.15335705876350403,-0.18629612028598785,0.07070068269968033,-0.10509755462408066,0.08766504377126694,-0.1748225837945938,0.14643213152885437,0.02113395929336548,-0.1550573706626892,0.03799596056342125,-0.010710764676332474,-0.04991700500249863,0.05472305789589882,0.17801538109779358,0.007900374010205269,0.06618528068065643,0.16855429112911224,-0.06971430778503418,0.1184271052479744,-0.15025970339775085,-0.0542123056948185,-0.16572044789791107,-0.188785582780838,0.11731337755918503,-0.13715901970863342,0.148625910282135,0.13104820251464844,-0.016772199422121048,0.11060468852519989,0.02942519821226597,-0.14482338726520538,-0.05948999151587486,-0.10580791532993317,-0.188900887966156,-0.1919349581003189,-0.19893817603588104,0.14537358283996582,-0.13012094795703888,0.19173912703990936,0.07742836326360703,-0.04394005984067917,-0.07896444201469421,-0.029320942237973213,0.1870034635066986,-0.1455056369304657,0.1061413362622261,0.10647731274366379,0.08650678396224976,0.02645363286137581,0.07659638673067093,-0.16837424039840698,0.059552669525146484,0.04030352458357811,-0.0978437215089798,0.16645804047584534,0.1315973550081253,-0.1780826896429062,0.07156360149383545,0.1179305762052536,0.0033340402878820896,-0.05918149650096893,-0.19100986421108246,0.19455526769161224,0.1782185584306717,0.0580928660929203,-0.046913374215364456,0.1504419893026352,-0.18792974948883057,-0.12817969918251038,0.04626339673995972,0.14307019114494324,0.19405831396579742,-0.038789451122283936,0.013491681776940823,0.11702929437160492,0.08759002387523651,0.097432941198349,0.10028175264596939,-0.098233163356781,0.15793220698833466,0.03137455880641937,0.023517275229096413,0.1925986260175705,-0.019835662096738815,-0.17199283838272095,-0.10190766304731369,-0.10322794318199158,-0.17165030539035797,0.018088944256305695,0.1914667785167694,-0.1656966507434845,0.12350530922412872,-0.07310478389263153,0.06538020074367523,-0.18620195984840393,0.13277027010917664,0.17630036175251007,-0.05481088161468506,0.10432927310466766,0.009660248644649982,0.16585543751716614,0.16461341083049774,-0.07242950052022934,-0.10773923248052597,0.1499965935945511,-0.12878265976905823,-0.1341545134782791,0.1972353458404541,-0.10153952240943909,0.05543162301182747,0.07893916219472885,0.03512866795063019,-0.1717628836631775,0.011478186585009098,-0.0005795994657091796,0.049045294523239136,0.06416293233633041,-0.040760595351457596,-0.054381631314754486,0.04035342484712601,0.12128477543592453,0.10680019855499268,0.05858233943581581,-0.11164820939302444,-0.0962028056383133,0.18908974528312683,0.10125381499528885,0.08374865353107452,-0.10178526490926743,-0.061741311103105545,-0.13355129957199097,0.02759665995836258,-0.1285906583070755,-0.18484292924404144,0.19379834830760956,0.07371212542057037,-0.11392558366060257,0.0037941504269838333,0.005251083988696337,-0.14324817061424255,0.08170843124389648,-0.0568118654191494,0.047149963676929474,0.18104439973831177,0.06118420511484146,-0.07295398414134979,-0.11627785116434097,0.14322398602962494,0.17614637315273285,-0.16652530431747437,-0.1777881681919098,0.0971473976969719,-0.1853232979774475,0.15436941385269165,-0.006142969708889723,0.07030445337295532,0.0206095390021801,-0.02708796039223671,-0.07565662264823914,0.04814917966723442,0.0831342488527298,-0.006994709372520447,-0.1723891794681549,-0.12736962735652924,-0.14499534666538239,0.15588177740573883,0.09818160533905029,-0.012448065914213657,0.06794226169586182,0.18605327606201172,0.15097597241401672,0.055082544684410095,0.19919684529304504,-0.011553852818906307,-0.022512294352054596,0.044584110379219055,-0.11375265568494797,-0.14854581654071808,0.18186740577220917,0.0900532454252243,0.16946633160114288,-0.04629639536142349,0.05569992959499359,-0.1208810806274414,0.04968729242682457,-0.11936552077531815,-0.18662850558757782,0.12182492762804031,-0.11435642838478088,0.1052212342619896,-0.16618309915065765,-0.030975544825196266,0.17371027171611786,-0.0113541129976511,0.02607565000653267,-0.06924883276224136,-0.02738105319440365,-0.06632707267999649,0.17140798270702362,-0.05668726563453674,-0.1886148601770401,0.04883478954434395,0.15915238857269287,0.09804004430770874,-0.11460927128791809,-0.16506358981132507,0.1909121870994568,0.1742125004529953,-0.039995647966861725,-0.00411205505952239,0.07073196023702621,-0.04373237118124962,-0.02514135092496872,0.1873948574066162,-0.1713319569826126,0.14308200776576996,-0.011642185039818287,0.15004116296768188,0.15652605891227722,-0.09982994943857193,0.10367757827043533,-0.18910543620586395,0.06317884474992752,-0.07753078639507294,-0.027450010180473328,-0.16477440297603607,0.14914530515670776,-0.001159395556896925,0.13529130816459656,0.1417718082666397,0.032619550824165344,0.08521656692028046,0.15227951109409332,0.04508885368704796,0.0021731846500188112,-0.17363271117210388,-0.12918230891227722,0.19473236799240112,-0.023335855454206467,0.0629490464925766,-0.1208835169672966,-0.07198063284158707,-0.037183091044425964,0.0041924347169697285,0.16379304230213165,-0.13066767156124115,0.15363025665283203,-0.003635468427091837,-0.006714587565511465,0.13432802259922028,0.0948769599199295,0.05174807459115982,0.17380961775779724,-0.03905948996543884,-0.005295612383633852,-0.15483765304088593,-0.07219675928354263,0.0713413655757904,-0.0276138037443161,0.15870796144008636,-0.012604285031557083,0.0665859803557396,0.18875661492347717,0.05185541883111,-0.03408044949173927,0.01989675872027874,-0.18732590973377228,-0.09555140882730484,-0.03908232972025871,0.1289101541042328,-0.19787856936454773,-0.005759015679359436,0.0926894098520279,0.10968928039073944,0.11286409944295883,-0.18039727210998535,0.08245384693145752,-0.12394454330205917,0.04539356753230095,-0.0742061585187912,-0.12105250358581543,0.11884749680757523,-0.029729196801781654,-0.05603914335370064,0.061292391270399094,-0.05430528521537781,0.09068509191274643,0.13697782158851624,0.16131196916103363,0.08564450591802597,0.08832988142967224,0.057439837604761124,0.0942760780453682,0.04093820974230766,0.165090411901474,-0.13917501270771027,0.121917724609375,0.1520519256591797,0.03928707540035248,-0.1970215141773224,0.18633529543876648,0.03445398062467575,0.13455870747566223,-0.09173426777124405,-0.19858352839946747,-0.14976032078266144,0.07718947529792786,0.15301330387592316,0.12462471425533295,0.036672577261924744,0.05245156213641167,0.17229613661766052,0.1695343255996704,-0.09882453829050064,0.031548842787742615,0.024111192673444748,-0.17070865631103516,0.00432391744107008,0.1565942019224167,0.0002064658037852496,0.05142701789736748,0.04791468381881714,-0.14378122985363007,0.13213922083377838,-0.1122560128569603,-0.15972410142421722,0.17411498725414276,-0.01581132411956787,-0.08608093857765198,-0.0031746267341077328,0.14680708944797516,-0.06083865463733673,-0.10587617009878159,-0.17673075199127197,-0.04803336411714554,0.17751263082027435,0.11567937582731247,-0.1316351443529129,-0.0726640373468399,-0.16087625920772552,0.054807279258966446,0.07162371277809143,-0.1259220540523529,0.015829946845769882,0.16888968646526337,-0.07886762171983719,0.16741906106472015,0.155938059091568,0.10684122145175934,-0.03613694757223129,0.07807670533657074,0.1385987550020218,0.1030828207731247,-0.0059180548414587975,0.059998754411935806,-0.10994334518909454,0.0054565961472690105,0.1192951425909996,-0.053705163300037384,-0.06371255964040756,-0.038670044392347336,0.16591200232505798,-0.16929328441619873,-0.14929504692554474,-0.00791686587035656,-0.1171252503991127,-0.050847575068473816,0.18424919247627258,0.045679960399866104,-0.08900288492441177,0.1445353478193283,0.04619021713733673,0.01291526760905981,-0.09547742456197739,0.0922342985868454,0.1533307582139969,0.18092802166938782,0.01761687360703945,0.06930407881736755,-0.03054431453347206,0.07190115004777908,0.039036814123392105,-0.17139357328414917,-0.05032730847597122,-0.07372688502073288,0.11648181825876236,-0.10564276576042175,-0.11957971006631851,-0.011100508272647858,0.19172944128513336,0.09012709558010101,0.026880493387579918,0.11741790175437927,0.03831528499722481,-0.02559899166226387,0.13762255012989044,-0.02265249378979206,-0.09093394875526428,-0.10242538154125214,0.08233541250228882,0.0256276186555624,0.08367303013801575,0.19169382750988007,-0.1117912083864212,-0.0230356827378273,-0.1122160255908966,-0.019151533022522926,0.08975119143724442,-0.1492726355791092,0.10388995707035065,0.10225511342287064,0.10611122846603394,-0.013115527108311653,0.12631213665008545,-0.1758916974067688,-0.02774181216955185,-0.007009169552475214,0.16323503851890564,-0.0431307815015316,0.05766940861940384,-0.10979976505041122,0.1247224509716034,-0.02510821260511875,-0.1311141699552536,0.10262811183929443,0.1319606453180313,0.15401406586170197,-0.08395364135503769,-0.09900813549757004,-0.12132304906845093,0.02884506620466709,-0.1813410371541977,0.10762430727481842,0.1482830047607422,-0.134942427277565,0.14427295327186584,0.18171319365501404,-0.16676829755306244,-0.0335916243493557,0.17662480473518372,-0.006411605980247259,-0.06075473502278328,-0.18806323409080505,-0.060939691960811615,0.14786012470722198,-0.12661133706569672,0.07084142416715622,0.13523980975151062,0.051710885018110275,-0.10222476720809937,0.09247270226478577,-0.11161867529153824,-0.17399108409881592,0.11712164431810379,-0.007792109157890081,-0.1161055788397789,0.12856844067573547,0.1661655455827713,-0.06594584137201309,-0.09662757068872452,-0.08549421280622482,0.08115323632955551,0.040413446724414825,-0.16327032446861267,-0.04655290022492409,0.17885148525238037,0.1316937506198883,0.006412154994904995,0.18781664967536926,-0.18009565770626068,0.03542863950133324,0.15160176157951355,0.19146402180194855,-0.06715472787618637,0.12397176772356033,-0.004955868702381849,0.1587938517332077,0.13175736367702484,0.04157465323805809,0.16384756565093994,0.1904091238975525,0.08207901567220688,0.19370287656784058,0.17707183957099915,-0.039110880345106125,-0.1352260261774063,-0.1678255796432495,0.15956692397594452,-0.020492006093263626,0.14388376474380493,-0.08817563205957413,0.09160171449184418,-0.12118855118751526,-0.17213298380374908,-0.014080985449254513,-0.0001831008557928726,0.006000783294439316,0.034451697021722794,0.10194062441587448,-0.16145160794258118,-0.03865157440304756,0.1169816330075264,-0.1917535960674286,0.16920967400074005,-0.052354395389556885,0.0058097452856600285,0.051319051533937454,-0.1831303983926773,0.06875081360340118,-0.08861151337623596,-0.17286261916160583,0.016757577657699585,0.07014790922403336,-0.11708345264196396,-0.011024576611816883,0.1696750521659851,0.05180054530501366,0.19398267567157745,0.04280756786465645,0.18625953793525696,-0.173507422208786,0.1534833014011383,0.19647283852100372,0.17112302780151367,-0.1965406835079193,-0.07771717756986618,-0.04997839033603668,0.11471037566661835,-0.19390007853507996,0.10298480838537216,-0.1318340301513672,-0.13715860247612,0.042292289435863495,-0.03210793435573578,-0.16090689599514008,0.158098965883255,0.19619135558605194,-0.08434665948152542,0.19910041987895966,0.12156359851360321,0.07882168143987656,-0.037297673523426056,-0.1912776529788971,-0.1018267497420311,0.19884997606277466,0.19728828966617584,0.08220604807138443,-0.10305769741535187,0.011720421724021435,-0.15097957849502563,-0.14682427048683167,-0.04670928046107292,0.08066201210021973,-0.008589712902903557,-0.14671574532985687],[-0.01695641689002514,0.1383950561285019,0.1460333615541458,-0.04814909026026726,-0.01243201456964016,-0.06735756993293762,0.17216581106185913,-0.15147702395915985,-0.17172308266162872,-0.10689782351255417,0.11001777648925781,-0.01997053436934948,-0.07267146557569504,-0.08659575134515762,0.06912201642990112,0.11754685640335083,-0.17941735684871674,0.059715576469898224,-0.11100537329912186,-0.14855700731277466,0.12319602072238922,0.15290145576000214,-0.0664883404970169,0.18360468745231628,-0.12307712435722351,-0.18514329195022583,0.17437180876731873,0.0018553449772298336,0.17000409960746765,-0.1830507069826126,-0.10824299603700638,0.04505852237343788,0.11621415615081787,0.10446207970380783,-0.1625455766916275,0.17050185799598694,0.1976332664489746,0.09989593923091888,0.06844987720251083,0.1942284107208252,-0.07089166343212128,-0.07855124771595001,0.07197984308004379,0.17392925918102264,0.08452467620372772,0.10877707600593567,0.1788686066865921,-0.18673661351203918,0.05773283913731575,0.17995373904705048,-0.04065321758389473,0.12888938188552856,0.02310681901872158,0.1957641988992691,-0.09794458746910095,0.08081260323524475,0.07197754085063934,0.03749964386224747,-0.1591109186410904,0.13487064838409424,0.15113478899002075,0.07310741394758224,0.033145565539598465,0.061900217086076736,0.16715598106384277,-0.1336202472448349,-0.1976538747549057,-0.0977988988161087,0.1449614316225052,-0.1010635569691658,0.149135559797287,-0.18310169875621796,0.11465001851320267,0.16761818528175354,-0.11871938407421112,0.10434585064649582,-0.05328017845749855,0.013834481127560139,0.06742966175079346,-0.04816964641213417,0.18249522149562836,-0.05553613603115082,0.1024148166179657,0.06726571172475815,-0.17341992259025574,-0.13169419765472412,0.06556222587823868,-0.1402016282081604,0.04935016855597496,0.1879846155643463,0.16737917065620422,0.12295960634946823,-0.19900435209274292,-0.012280573137104511,-0.1020527258515358,0.19963321089744568,0.1982349455356598,-0.1313544660806656,0.13483747839927673,0.1655503362417221,0.02063043974339962,-0.12832973897457123,0.044937144964933395,0.10091273486614227,-0.19357679784297943,-0.09314034134149551,0.14562128484249115,0.17851325869560242,-0.03403829410672188,-0.17889182269573212,-0.08811186999082565,-0.16925203800201416,-0.13586819171905518,-0.02291949838399887,0.03342317417263985,0.03648335859179497,0.05526924505829811,0.17326416075229645,0.157075434923172,0.19910593330860138,0.1210811510682106,0.17568610608577728,0.038555558770895004,-0.07485717535018921,0.1564018279314041,0.0307913850992918,-0.04457878693938255,-0.0542823001742363,-0.03594911843538284,0.09753906726837158,0.01887013204395771,-0.04520348086953163,-0.15695391595363617,-0.18285468220710754,0.13112662732601166,0.12246618419885635,-0.1356734186410904,-0.11617714166641235,-0.13179057836532593,-0.08724072575569153,-0.07025107741355896,-0.19725455343723297,0.1592933088541031,-0.017932483926415443,0.10113741457462311,-0.04263835772871971,0.05905923992395401,-0.07590033859014511,-0.1920531839132309,0.04025467857718468,0.12095633894205093,-0.19676454365253448,-0.07224690169095993,-0.08317818492650986,0.02896297164261341,-0.024002663791179657,0.08408176153898239,-0.06577813625335693,0.012018652632832527,0.02118474803864956,-0.13319844007492065,0.04059416055679321,0.095926433801651,-0.13484153151512146,0.0050718351267278194,0.1299065798521042,-0.09384088218212128,-0.17381875216960907,-0.05785708129405975,0.1338484138250351,0.07013240456581116,-0.05246667191386223,-0.01557686273008585,0.10361527651548386,-0.051058534532785416,0.0036176738794893026,-0.19314084947109222,0.05504503846168518,-0.05569801479578018,0.12454853951931,0.15029260516166687,0.14872752130031586,0.014112363569438457,-0.17506855726242065,0.08361274003982544,0.12738282978534698,-0.059732284396886826,-0.14832302927970886,-0.19019977748394012,-0.19942034780979156,-0.02086484618484974,0.1462726891040802,0.10241038352251053,-0.09458325803279877,0.1973274052143097,0.020036324858665466,0.013247488997876644,0.10416664183139801,-0.06496786326169968,-0.04219203442335129,0.09390795230865479,-0.045674052089452744,0.0719180777668953,-0.1308368295431137,-0.07188215851783752,-0.0544152669608593,0.1034107580780983,-0.027829792350530624,0.17095671594142914,-0.048966508358716965,-0.1272733360528946,0.011599577963352203,0.017074543982744217,0.0004302288871258497,0.18864072859287262,-0.01890544593334198,0.01234221737831831,-0.14891983568668365,0.08232088387012482,-0.07086125761270523,0.045978281646966934,0.10151663422584534,0.060362670570611954,-0.19492299854755402,0.13923218846321106,0.19944678246974945,-0.01857493817806244,-0.17368066310882568,-0.18836826086044312,0.1672147810459137,0.09794536978006363,0.036213960498571396,-0.14746741950511932,0.09134192764759064,0.1221204474568367,-0.004733370151370764,0.115468330681324,-0.0601779967546463,-0.12083756178617477,0.10063222050666809,0.015217851847410202,-0.0806678757071495,-0.05819761008024216,0.18502959609031677,0.0057997633703053,0.09428289532661438,0.0034090394619852304,-0.07209065556526184,0.09622108936309814,0.006725998129695654,0.04348510131239891,0.12534941732883453,-0.10239517688751221,-0.012597770430147648,-0.19115294516086578,-0.029406826943159103,0.09493855386972427,0.15604645013809204,-0.008286993950605392,0.017577936872839928,-0.1911361664533615,-0.056976038962602615,0.053694866597652435,0.07305394858121872,-0.11563648283481598,0.052194319665431976,0.011983731761574745,-0.1608409732580185,-0.11908198893070221,-0.017280656844377518,-0.1770658791065216,0.1480199694633484,0.1104942336678505,-0.16122107207775116,0.024347558617591858,0.05385204404592514,0.08777425438165665,0.07669242471456528,-0.05076025426387787,0.16254381835460663,0.0320923887193203,0.1567382663488388,0.042493388056755066,-0.1415606290102005,-0.07043895870447159,0.047725483775138855,-0.06243311986327171,0.16529332101345062,-0.11391789466142654,-0.08853871375322342,-0.0033435318619012833,0.14577583968639374,-0.11066510528326035,-0.14846716821193695,0.12937812507152557,0.10985814034938812,0.1289098560810089,0.16791872680187225,0.14256024360656738,0.022116171196103096,0.017809242010116577,0.19138845801353455,-0.07302088290452957,0.12577660381793976,0.023540165275335312,-0.0007074771565385163,0.014584516175091267,-0.1602475643157959,-0.15232093632221222,-0.1615740954875946,-0.1436675488948822,-0.027971060946583748,0.02200082689523697,-0.09497486799955368,-0.18712259829044342,-0.1730441451072693,-0.0361623540520668,0.17552153766155243,-0.025056125596165657,0.11964060366153717,0.034855470061302185,-0.09117669612169266,-0.08696290850639343,0.10836762189865112,0.19687016308307648,-0.1543406844139099,0.09257222712039948,-0.033962737768888474,0.11060114204883575,0.0009557806188240647,0.11720726639032364,0.11850154399871826,-0.1438879370689392,0.1478651612997055,0.08127881586551666,0.03614945337176323,-0.17299260199069977,-0.13935959339141846,-0.14987631142139435,0.0657728984951973,0.044556718319654465,0.1470472365617752,-0.07381324470043182,0.06967535614967346,-0.1921710968017578,0.1955767720937729,0.05560752749443054,-0.13592007756233215,0.0035772339906543493,0.030442534014582634,0.005877617746591568,-0.1668812334537506,-0.0799102857708931,-0.016672983765602112,0.1640731245279312,-0.03982501104474068,0.04935355484485626,0.15687838196754456,0.13388532400131226,0.06493780761957169,-0.1887027472257614,-0.07707773149013519,0.09628567844629288,-0.12763214111328125,-0.015285163186490536,-0.03858136013150215,0.17174644768238068,0.050399310886859894,-0.1303233951330185,0.028285842388868332,0.12304031848907471,0.03277710825204849,0.02336636371910572,0.13430526852607727,-0.03176797926425934,0.18477874994277954,0.10516998171806335,0.15517716109752655,-0.139421746134758,-0.009264862164855003,-0.19354885816574097,-0.057924408465623856,0.05096878856420517,0.12995420396327972,-0.10093534737825394,0.11669336259365082,-0.13564801216125488,-0.043370649218559265,0.015811480581760406,0.1286037564277649,0.1451166421175003,0.11620763689279556,-0.0773065909743309,0.19109556078910828,0.024205267429351807,-0.1593140810728073,0.10190612822771072,-0.1516112983226776,-0.09093477576971054,-0.027220191434025764,0.1514776647090912,0.04922480881214142,-0.15098650753498077,-0.07429767400026321,0.07767043262720108,0.005399627145379782,-0.04246905446052551,0.10499697178602219,-0.041453611105680466,0.05950355529785156,0.08061463385820389,0.1534661203622818,0.12604287266731262,-0.0712999626994133,0.11767517775297165,-0.12848493456840515,0.014285489916801453,0.0564023032784462,0.07078621536493301,-0.09718549996614456,-0.19751191139221191,0.1731974482536316,0.055278267711400986,0.0326106958091259,-0.11937074363231659,0.10532014071941376,-0.15782694518566132,-0.16627922654151917,-0.10709627717733383,0.10846933722496033,-0.14857469499111176,0.05622750520706177,-0.12613831460475922,-0.12822744250297546,0.14355497062206268,0.04105021432042122,0.1868295669555664,0.009457950480282307,-0.19082549214363098,0.1171148419380188,-0.13029681146144867,-0.01515643298625946,-0.11960885673761368,-0.004143895115703344,0.014094628393650055,0.18548426032066345,0.013626240193843842,0.02659435011446476,-0.15880818665027618,0.1227094754576683,0.03231874853372574,0.0210869237780571,-0.12694142758846283,-0.17101246118545532,-0.16703905165195465,0.08937858045101166,-0.08873558789491653,-0.0816715881228447,0.05838368833065033,0.19996491074562073,0.037816084921360016,-0.16037051379680634,0.034388259053230286,-0.012283231131732464,0.111459881067276,-0.18668080866336823,0.1649400293827057,-0.1656302511692047,-0.017138788476586342,0.05823029205203056,-0.08227422088384628,-0.0893535315990448,0.0735165923833847,-0.02209746465086937,0.13906192779541016,0.04548817500472069,0.08990903198719025,-0.1464383602142334,-0.19256240129470825,-0.09553678333759308,0.06974977999925613,0.05989052355289459,-0.06561420857906342,-0.02408292330801487,-0.029664121568202972,0.057543788105249405,-0.005231489893049002,0.07577311247587204,0.026425521820783615,0.15909865498542786,0.0035045607946813107,0.17658928036689758,0.136654794216156,0.026775585487484932,-0.036030855029821396,0.19677352905273438,-0.18525120615959167,0.1919667273759842,-0.03369280695915222,0.11908790469169617,0.08932186663150787,-0.1399485170841217,-0.023995831608772278,0.15358470380306244,0.14381414651870728,0.04100840911269188,-0.02225450426340103,0.053898680955171585,-0.026835883036255836,0.12310423702001572,0.04517069831490517,0.05974240228533745,0.10645542293787003,-0.17642104625701904,0.1491859406232834,-0.029719317331910133,0.0967874526977539,0.1493971347808838,0.172686368227005,0.018570028245449066,0.19536712765693665,0.07264837622642517,-0.17032207548618317,0.052128080278635025,0.16466805338859558,-0.053238291293382645,0.05228505656123161,-0.03437921777367592,0.09495951980352402,0.005194632336497307,-0.014797578565776348,0.12063194066286087,0.08580956608057022,0.1813984215259552,0.027877846732735634,0.053901851177215576,-0.16900873184204102,-0.17603717744350433,0.07089117169380188,0.1395844668149948,0.13762015104293823,0.010603453032672405,0.03915470838546753,0.17262773215770721,-0.18698732554912567,0.09917709231376648,0.04467884078621864,0.04841192811727524,-0.0012974506244063377,-0.12199736386537552,0.09521274268627167,-0.1399909108877182,0.009937386959791183,-0.1736123263835907,0.06882473081350327,0.13217107951641083,0.1326681524515152,-0.1679353266954422,0.010418809950351715,-0.011526493355631828,-0.024797365069389343,0.08040130883455276,0.16586782038211823,0.16312755644321442,0.033652231097221375,0.16862015426158905,-0.05065936595201492,-0.07292089611291885,0.042432527989149094,0.025598732754588127,-0.1503540426492691,-0.06758762151002884,0.1332198977470398,0.0032855041790753603,0.0011591836810112,-0.19085626304149628,-0.06067515164613724,-0.103647880256176,0.11819785833358765,0.08662539720535278,0.05634130537509918,0.08694065362215042,0.12971672415733337,0.029917525127530098,-0.11706531047821045,-0.19631840288639069,-0.045440610498189926,-0.19344523549079895,-0.1340278536081314,-0.12702026963233948,0.08485148847103119,0.1929105967283249,-0.03073829971253872,0.06372300535440445,0.06902816146612167,-0.08921974897384644,0.16489633917808533,0.027352439239621162,0.10486549139022827,-0.024484770372509956],[0.08751878887414932,-0.14089111983776093,-0.12375771254301071,-0.14622578024864197,-0.058978259563446045,0.1108725443482399,0.0744718611240387,0.144974023103714,-0.07110118120908737,0.18494479358196259,0.03880654647946358,0.1290484368801117,-0.017224395647644997,-0.03203035518527031,0.04503348097205162,0.10213176161050797,-0.062082480639219284,0.0855913758277893,-0.08188735693693161,0.028662558645009995,-0.11700110882520676,0.056215714663267136,0.06704255193471909,-0.16323202848434448,0.12659700214862823,0.16528230905532837,0.05097072571516037,-0.07007422298192978,0.0034301287960261106,-0.01964554190635681,-0.18991680443286896,0.1442708820104599,0.08821170032024384,0.07116273790597916,0.1265762746334076,-0.18854638934135437,0.10003204643726349,-0.02538878098130226,0.035674821585416794,0.07593361288309097,-0.12976278364658356,-0.18152157962322235,-0.08498361706733704,0.07205323874950409,0.10621028393507004,0.0726405531167984,0.135868102312088,-0.00019478659669402987,0.16127607226371765,0.03693237528204918,-0.004885051399469376,0.1640322208404541,-0.0005542316357605159,0.0024459881242364645,-0.07884356379508972,-0.05753619223833084,0.06133454665541649,-0.09233466535806656,0.023639030754566193,0.08328378200531006,0.17432044446468353,0.09289450198411942,-0.0946350023150444,0.08555461466312408,-0.14658814668655396,-0.1157359778881073,-0.08288577198982239,0.10990937799215317,0.08732549101114273,-0.15748870372772217,0.07529707252979279,-0.040565501898527145,0.08480192720890045,-0.1380794495344162,-0.007461504079401493,-0.11605937778949738,-0.10188458114862442,0.19588817656040192,0.15512114763259888,0.12191566824913025,0.03573015704751015,-0.14965717494487762,0.16730691492557526,0.010443749837577343,0.13348568975925446,-0.008796397596597672,-0.06563635170459747,0.1184166893362999,0.12892185151576996,-0.1520104855298996,-0.036261145025491714,0.03471488505601883,0.17967864871025085,0.1553487479686737,-0.18802432715892792,0.07782236486673355,0.027996022254228592,-0.1757863461971283,-0.1258014291524887,-0.16092175245285034,0.11861085891723633,-0.1889752894639969,-0.08563940227031708,-0.0487334169447422,0.15584520995616913,0.004878807347267866,0.04315981641411781,-0.13205307722091675,-0.12817412614822388,0.10530151426792145,-0.1462908834218979,0.025597546249628067,0.15036283433437347,-0.07500256597995758,-0.09068260341882706,-0.15834717452526093,0.09729374945163727,-0.17009755969047546,-0.1486198604106903,-0.04901941493153572,0.0010261418065056205,-0.028844712302088737,0.06836625188589096,0.18095917999744415,0.18435348570346832,-0.06899846345186234,0.10862237960100174,0.15168306231498718,0.03190110623836517,0.05298446863889694,-0.07898423820734024,-0.1504010707139969,-0.12071216851472855,0.12968453764915466,-0.06200386583805084,-0.1311282366514206,0.10733169317245483,-0.1006801649928093,0.1811296045780182,0.013206208124756813,-0.10505098104476929,0.0382484532892704,0.10139157623052597,-0.0994051918387413,0.11907479166984558,0.18995487689971924,0.15050940215587616,-0.1457132250070572,-0.15850621461868286,0.10586629062891006,-0.10718145966529846,0.051432862877845764,-0.06204625219106674,0.18715648353099823,-0.031564388424158096,0.1717343032360077,0.17817085981369019,0.12088354676961899,0.12585534155368805,0.15706948935985565,0.055526141077280045,0.18955868482589722,0.11267226189374924,-0.04990285262465477,-0.11675016582012177,0.1844741702079773,0.1558653861284256,-0.11668552458286285,-0.18233151733875275,0.16479863226413727,0.0356852263212204,-0.002970599802210927,0.01257974561303854,-0.14560547471046448,-0.04505540058016777,-0.12209141254425049,0.09835672378540039,-0.15525352954864502,-0.05049743875861168,-0.03111337684094906,0.15420231223106384,-0.07824603468179703,0.004729183856397867,0.12986159324645996,0.17814511060714722,-0.12127742171287537,-0.023416580632328987,-0.12544457614421844,0.18564966320991516,-0.18533951044082642,-0.111383356153965,-0.15999779105186462,-0.16902165114879608,-0.1432989090681076,0.1140076145529747,-0.0927099883556366,0.18539726734161377,0.033195026218891144,-0.17205765843391418,-0.032471802085638046,-0.01874370314180851,0.04141838476061821,0.022038191556930542,-0.008335093036293983,-0.09087883681058884,0.09247882664203644,0.11985450983047485,-0.12621015310287476,-0.033358119428157806,0.044368926435709,0.18583258986473083,0.15705779194831848,0.03641211986541748,-0.14315666258335114,0.09996838867664337,-0.13840147852897644,0.011160475201904774,-0.00710650160908699,0.15221181511878967,-0.07676602154970169,-0.17420397698879242,0.1836504191160202,-0.1388424038887024,-0.14546504616737366,-0.08315432816743851,-0.055409468710422516,0.1923266351222992,0.16442152857780457,-0.16151036322116852,0.010150598362088203,0.09606853127479553,-0.09287526458501816,0.09314523637294769,0.08727242052555084,0.13592152297496796,0.049964237958192825,-0.011897888965904713,-0.0033114145044237375,-0.005770136136561632,0.04033029451966286,-0.1640947312116623,-0.17717011272907257,0.06678265333175659,-0.07389526814222336,-0.08041516691446304,0.07215174287557602,0.06503049284219742,0.0765855684876442,0.13752135634422302,-0.09148821234703064,-0.18844681978225708,-0.04181794449687004,-0.06386727094650269,-0.01396406814455986,0.11733173578977585,0.19259081780910492,-0.12690366804599762,0.06231243535876274,0.028233246877789497,-0.052407436072826385,-0.0018059397116303444,0.1349153071641922,0.1986018270254135,0.0675639882683754,-0.0023450294975191355,0.12941274046897888,-0.07198405265808105,-0.09928461164236069,-0.11737379431724548,0.1751035451889038,0.15414781868457794,-0.014215641655027866,0.07990408688783646,-0.14458608627319336,0.16513673961162567,-0.018974365666508675,-0.1294124275445938,-0.18742063641548157,0.06852924823760986,-0.1082262247800827,-0.03827710449695587,0.05921792984008789,0.14629188179969788,0.18188169598579407,0.06487394124269485,0.05932919681072235,0.1614636927843094,0.1879117786884308,-0.16480550169944763,0.029274582862854004,0.13533145189285278,-0.008212650194764137,-0.18146826326847076,0.01593027077615261,0.1544005572795868,-0.06395572423934937,-0.11860153824090958,0.08542074263095856,0.05216885358095169,0.1857663094997406,-0.03342412784695625,0.1426137536764145,0.177242249250412,-0.07723987847566605,-0.16473504900932312,-0.1476903259754181,0.12190637737512589,-0.07283836603164673,0.0761108472943306,0.16016659140586853,0.1712409406900406,0.006617477163672447,0.14687441289424896,-0.04737819731235504,-0.0036192056722939014,-0.17766046524047852,0.00946121010929346,-0.06484638154506683,-0.0845649465918541,-0.03262999281287193,0.060947299003601074,-0.10149960964918137,-0.19135014712810516,0.06133187189698219,0.14914348721504211,-0.0034534919541329145,0.12753331661224365,-0.17511393129825592,0.12005767971277237,0.0822073221206665,0.036607928574085236,-0.10403747111558914,0.12018749117851257,0.062886543571949,0.05436347797513008,0.00000527109159520478,0.15063418447971344,0.05111674219369888,-0.12055051326751709,0.08352366089820862,-0.19876840710639954,-0.19165655970573425,0.16434569656848907,0.19383211433887482,0.17369484901428223,-0.10050109773874283,-0.14811468124389648,0.042853523045778275,-0.1521158367395401,-0.097828209400177,-0.08511633425951004,0.14529059827327728,0.18404662609100342,0.06344196945428848,-0.13136093318462372,0.13414256274700165,0.054096002131700516,0.08874205499887466,-0.07446187734603882,-0.04769575595855713,-0.06388895958662033,-0.012835776433348656,-0.10856156051158905,0.16391891241073608,0.09413997828960419,-0.03383845090866089,0.18548785150051117,0.17071707546710968,0.19765342772006989,0.1803267002105713,0.05066622048616409,0.1920120120048523,0.10972955822944641,0.08729598671197891,0.033002227544784546,0.17757491767406464,0.14741137623786926,0.06207740306854248,0.16841495037078857,0.13592222332954407,-0.19104617834091187,-0.02068912424147129,-0.0450713112950325,-0.12553104758262634,-0.18622305989265442,-0.19447793066501617,-0.15013088285923004,-0.10890582948923111,-0.14529523253440857,0.05612076446413994,-0.13469792902469635,-0.14852501451969147,0.016553187742829323,-0.07462926208972931,0.1966843158006668,0.17634564638137817,-0.04220450296998024,-0.04252238571643829,-0.13508567214012146,0.008680762723088264,0.03809906169772148,-0.09955709427595139,-0.03437410667538643,-0.14192594587802887,0.17142942547798157,0.13109607994556427,-0.11981496214866638,-0.053170979022979736,0.1292489469051361,0.19685284793376923,0.13663974404335022,-0.03355053812265396,-0.18137770891189575,-0.07076766341924667,0.015957824885845184,0.19804993271827698,0.15750324726104736,-0.1635572463274002,-0.018679974600672722,0.17514827847480774,0.006931495852768421,-0.1179126650094986,0.1990167796611786,-0.16038770973682404,-0.18193502724170685,0.05202334746718407,-0.09413275867700577,0.08448139578104019,0.05634972080588341,0.060293182730674744,-0.17894114553928375,-0.03896509110927582,-0.1676671802997589,0.10627750307321548,0.1401163637638092,0.015323475934565067,0.11320546269416809,0.08004345744848251,0.1688070148229599,-0.18278172612190247,0.12896429002285004,-0.19193363189697266,-0.10652418434619904,0.15199975669384003,-0.042839206755161285,-0.175091952085495,0.18848179280757904,0.10496336221694946,0.1756620854139328,0.042759448289871216,0.08497457206249237,-0.05654342472553253,-0.10095024853944778,-0.16176283359527588,-0.09545252472162247,0.0900840237736702,0.055856529623270035,0.033637311309576035,-0.18118789792060852,0.002127318177372217,-0.13214819133281708,-0.189775288105011,0.04197467491030693,0.042612314224243164,0.1516372561454773,0.05001787468791008,-0.11004388332366943,-0.192480206489563,-0.19358371198177338,-0.11828859895467758,-0.06222885102033615,0.08887080103158951,0.14728131890296936,-0.012753196991980076,-0.09072809666395187,0.15134094655513763,0.17271161079406738,-0.03436155244708061,-0.14192788302898407,0.01968001201748848,0.0815669596195221,-0.18433664739131927,0.021317491307854652,0.07766872644424438,-0.0387868694961071,0.1695878654718399,0.0591801255941391,0.14597848057746887,0.18380139768123627,0.04224732890725136,-0.03366884961724281,-0.19175072014331818,-0.030728911980986595,-0.04692206159234047,-0.013901306316256523,0.1757573038339615,-0.10188499838113785,-0.1447393000125885,-0.13667725026607513,-0.11466153711080551,-0.1127312108874321,0.18039007484912872,-0.016370119526982307,-0.12731234729290009,0.19055603444576263,-0.004194418899714947,0.09755750745534897,0.15880265831947327,0.029239309951663017,-0.1389310210943222,0.1667451113462448,0.012628044001758099,-0.14910224080085754,0.05347748100757599,-0.13877741992473602,0.10004302114248276,-0.05605822801589966,-0.172260120511055,-0.08781757205724716,0.031001700088381767,-0.11305265873670578,-0.06514687836170197,0.11770308762788773,0.13502590358257294,-0.0838366374373436,-0.15889155864715576,-0.07944392412900925,0.194099560379982,0.08403988182544708,-0.07965455204248428,-0.13559414446353912,-0.07023357599973679,0.04738177731633186,0.032666269689798355,0.013927293010056019,0.06261957436800003,0.10578750818967819,-0.046715497970581055,-0.16753941774368286,0.1151299849152565,-0.05245869979262352,0.002129803178831935,0.08669325709342957,-0.1712014079093933,0.03496743366122246,0.13452006876468658,0.007340849377214909,0.13153426349163055,0.1601434051990509,0.0560436025261879,0.18743227422237396,-0.1208546906709671,0.12219424545764923,0.06799513846635818,0.0535789392888546,-0.1334381103515625,-0.1356828361749649,0.09560588747262955,0.008852675557136536,0.17193926870822906,0.10990294069051743,-0.055930353701114655,-0.1978542059659958,-0.08211655169725418,0.04432639479637146,-0.013134926557540894,-0.19362640380859375,-0.1086210086941719,0.07283589988946915,0.00548272579908371,-0.1545047163963318,0.18681295216083527,-0.11156812310218811,0.12490425258874893,0.15409211814403534,0.18010911345481873,0.14214514195919037,-0.19969730079174042,-0.18416859209537506,0.06322448700666428,0.06408558040857315,-0.16681846976280212,-0.07429003715515137,0.17593926191329956,-0.10464955866336823,-0.15152350068092346,0.024700434878468513,0.05926543101668358,0.19111375510692596,0.06489767879247665,0.07003679126501083,-0.14908823370933533,0.1890527456998825,-0.15790726244449615,0.13870073854923248,-0.1852506697177887,0.176627978682518,-0.0032048930879682302,-0.011961223557591438,-0.044884756207466125],[-0.023485735058784485,-0.16364102065563202,-0.02412237599492073,0.023157449439167976,-0.10429909825325012,-0.18374468386173248,-0.1879366785287857,0.01318132970482111,0.14751778542995453,0.16107185184955597,0.08184979110956192,0.10343358665704727,-0.06799615919589996,0.05266686528921127,0.06219584122300148,0.02996824122965336,-0.19786828756332397,-0.16656701266765594,0.13554295897483826,-0.029203524813055992,0.003856097348034382,0.14113131165504456,-0.048863112926483154,0.16565658152103424,0.1644817590713501,-0.11681880056858063,-0.14132562279701233,-0.1764269322156906,-0.16048698127269745,-0.18262828886508942,-0.15006765723228455,0.15828002989292145,0.17243461310863495,0.1623774915933609,0.16601333022117615,0.15976227819919586,0.1565677672624588,-0.019634606316685677,0.07930980622768402,0.19345623254776,-0.04277485981583595,0.084195576608181,-0.19208112359046936,-0.021441852673888206,-0.18978817760944366,0.18436333537101746,0.17254076898097992,-0.056927524507045746,-0.10206806659698486,-0.12640132009983063,-0.18187393248081207,-0.13493962585926056,0.08247392624616623,0.06133805587887764,-0.11297878623008728,0.1937527358531952,0.05150601640343666,0.005806392524391413,-0.027452215552330017,-0.15492033958435059,-0.07540339231491089,0.10197670757770538,0.1311873197555542,-0.1362188160419464,-0.1511685848236084,0.1788366138935089,0.1522233933210373,0.16655798256397247,0.0442705973982811,-0.0016340997535735369,0.18446139991283417,-0.006204511970281601,-0.0038693444803357124,0.14902347326278687,0.14904296398162842,0.10342773050069809,-0.1304081827402115,0.13448753952980042,0.08808322995901108,-0.033231496810913086,-0.15016280114650726,-0.017056798562407494,0.17087653279304504,0.15462633967399597,-0.03137515112757683,0.05103364586830139,0.06551739573478699,0.00819113478064537,0.01222046185284853,-0.009358192794024944,0.1697404831647873,0.017261367291212082,0.10573743283748627,-0.019958436489105225,0.14037077128887177,-0.19607536494731903,-0.022713677957654,-0.07282461225986481,0.16019758582115173,-0.039863500744104385,-0.056449420750141144,-0.1863498091697693,-0.15665768086910248,-0.0021684919483959675,-0.010547966696321964,0.0010607971344143152,-0.07793795317411423,-0.1433701068162918,-0.13346733152866364,0.19891323149204254,-0.08388764411211014,-0.057589247822761536,0.005145767703652382,-0.044903434813022614,-0.12227679044008255,0.19134710729122162,-0.10639949142932892,-0.16256533563137054,-0.10019072890281677,0.17501139640808105,-0.006944050546735525,-0.1428930014371872,-0.006174319423735142,0.0715557113289833,0.07963811606168747,0.034772276878356934,0.13807649910449982,-0.14229142665863037,0.11772195249795914,0.11153503507375717,0.1925191432237625,0.04541819542646408,0.0724700316786766,0.11148318648338318,0.15085580945014954,-0.14815835654735565,-0.0676373690366745,-0.13718783855438232,-0.11768925935029984,0.06976130604743958,0.055398475378751755,-0.14171652495861053,0.17230889201164246,0.15956778824329376,0.006143881939351559,0.07280945032835007,-0.09480102360248566,-0.0077191549353301525,-0.031154140830039978,-0.04128716140985489,0.19433589279651642,0.04420776292681694,-0.026483867317438126,0.05869409441947937,0.1306673139333725,-0.11825154721736908,0.15986713767051697,0.10343781113624573,-0.17127221822738647,-0.12553267180919647,-0.07266204804182053,0.053605835884809494,0.10117632150650024,-0.19503505527973175,-0.15127474069595337,-0.10358070582151413,0.15964749455451965,-0.02021457441151142,-0.006836656015366316,0.055677589029073715,-0.06791345775127411,-0.19234929978847504,-0.17349518835544586,-0.11728305369615555,0.05587184429168701,0.143083393573761,0.16942809522151947,-0.043116696178913116,-0.17320753633975983,-0.19057409465312958,0.033565402030944824,0.01901913248002529,0.03703668341040611,-0.13436149060726166,0.1609344184398651,0.16124917566776276,-0.1326325386762619,0.07212864607572556,-0.12664566934108734,0.1618136614561081,-0.025787657126784325,0.10933849215507507,0.004188163671642542,-0.11089827865362167,0.09640331566333771,0.029692891985177994,-0.03476466238498688,-0.035526126623153687,0.09157117456197739,-0.14739857614040375,-0.036866381764411926,0.14786890149116516,-0.10203845053911209,-0.10838542878627777,0.06295355409383774,0.19852697849273682,-0.08774585276842117,-0.14072339236736298,-0.014045377261936665,-0.13394443690776825,0.16946595907211304,0.09115626662969589,0.05987047776579857,0.013775233179330826,0.13141874969005585,0.15453657507896423,0.05716517195105553,-0.04787863790988922,-0.08789002895355225,0.0878647118806839,0.03146908059716225,0.18705996870994568,-0.167428657412529,-0.103019580245018,-0.16864217817783356,-0.14381356537342072,-0.0943124070763588,-0.028104254975914955,-0.0038898794446140528,-0.1935511976480484,-0.005019711330533028,-0.11780937761068344,-0.09467339515686035,-0.0023566705640405416,0.08127739280462265,-0.024815620854496956,-0.1429792046546936,-0.09828605502843857,-0.02745804563164711,0.11736387759447098,-0.08441958576440811,-0.003959751222282648,-0.047329552471637726,-0.09742620587348938,0.035804927349090576,-0.057482074946165085,-0.1631089299917221,-0.1457824558019638,0.09700153023004532,-0.07317858934402466,-0.003931066021323204,0.04565037041902542,-0.004975909832865,0.1544821709394455,0.07025500386953354,-0.06680082529783249,0.10841208696365356,0.07747512310743332,0.17187684774398804,0.0172556322067976,0.05011101812124252,0.05116606503725052,-0.1899665892124176,-0.18774545192718506,-0.09888690710067749,-0.18819335103034973,0.1456456482410431,-0.1576772779226303,0.06342646479606628,0.12052924931049347,0.04952292516827583,-0.012522785924375057,-0.05414978414773941,-0.051296498626470566,0.12025121599435806,-0.19057251513004303,0.1276344358921051,0.12454987317323685,-0.1366252303123474,0.03830621391534805,0.012809572741389275,0.1451316773891449,-0.07228416949510574,-0.1035890281200409,0.12401703000068665,-0.19446158409118652,0.06468626856803894,-0.07398982346057892,0.010829471983015537,0.02566758543252945,0.09534786641597748,-0.07035372406244278,0.007274504750967026,0.003513494972139597,-0.12455295771360397,0.037151772528886795,0.046646177768707275,-0.021427560597658157,0.06712266057729721,-0.164394810795784,-0.002512609586119652,0.08031987398862839,-0.08192641288042068,-0.15399070084095,-0.08236159384250641,0.018941061571240425,0.025660865008831024,0.17638349533081055,0.15131333470344543,0.0887957438826561,0.14598791301250458,0.16206243634223938,0.02120422013103962,-0.18378117680549622,-0.012854578904807568,-0.1860150545835495,0.08588985353708267,0.07268400490283966,-0.051991209387779236,0.030268782749772072,-0.02262645959854126,0.06211968883872032,-0.09788305312395096,-0.15718531608581543,-0.030596382915973663,-0.014720803126692772,0.11404775828123093,-0.1259390115737915,0.11624427884817123,-0.16299739480018616,-0.1393689215183258,0.17736782133579254,-0.03644319623708725,-0.08809376507997513,-0.1758645474910736,-0.09727134555578232,-0.18390654027462006,0.17681430280208588,-0.08559681475162506,0.07343092560768127,-0.12172089517116547,-0.1096140518784523,0.19446143507957458,0.0848347395658493,-0.19134162366390228,-0.12420089542865753,-0.07650969177484512,-0.12476275861263275,0.12479127198457718,-0.10757919400930405,0.1496959775686264,-0.16515231132507324,0.1287163347005844,0.04739448428153992,-0.16908419132232666,0.04583721607923508,-0.03728652372956276,-0.18518324196338654,-0.14002154767513275,0.008398850448429585,-0.1992916762828827,-0.06684184819459915,0.12604625523090363,0.15317770838737488,-0.1601857990026474,-0.11181465536355972,-0.006789190694689751,0.1100960522890091,0.10364501178264618,-0.0983092188835144,0.1651143729686737,0.13317234814167023,0.06862423568964005,-0.09398315846920013,0.16038532555103302,0.027547655627131462,0.07240547239780426,0.09601166099309921,0.06508558988571167,-0.052831873297691345,-0.006280491594225168,0.004887897986918688,-0.12863408029079437,0.02290692925453186,0.1781638264656067,-0.05417274683713913,0.006667669862508774,-0.15040351450443268,0.10783924162387848,0.08101130276918411,0.1936805546283722,0.006530179642140865,0.16057398915290833,-0.10724261403083801,-0.038615670055150986,0.18709935247898102,0.144902765750885,0.18432892858982086,-0.1570189893245697,0.11138396710157394,-0.08015944808721542,-0.04160166159272194,0.13365431129932404,-0.15058766305446625,-0.060222167521715164,-0.08930850028991699,-0.0766289085149765,-0.15865692496299744,-0.13086220622062683,-0.039812121540308,-0.15115121006965637,0.00979380588978529,-0.10423695296049118,-0.1264958530664444,-0.18658971786499023,0.08355791866779327,-0.05460796877741814,-0.16906198859214783,-0.11475584656000137,0.07686708122491837,-0.183304563164711,-0.030434567481279373,0.14364299178123474,0.17531472444534302,-0.09109914302825928,-0.17197896540164948,0.0504971481859684,0.021584808826446533,0.013197834603488445,0.09382909536361694,-0.12771157920360565,-0.06636053323745728,0.16246937215328217,0.0220815297216177,-0.07615169882774353,0.02420450747013092,-0.08572199195623398,0.18352265655994415,-0.029970940202474594,-0.10683776438236237,-0.16978386044502258,-0.02371285669505596,-0.16641099750995636,-0.03290095180273056,0.12927483022212982,0.0018274413887411356,-0.02009553276002407,-0.1673668473958969,0.04918074607849121,-0.05299092084169388,-0.07973558455705643,-0.01196935586631298,0.1283237487077713,0.12094465643167496,-0.031208684667944908,-0.11706124991178513,-0.01718825474381447,0.1879500299692154,0.12745845317840576,0.048135265707969666,0.05084247142076492,-0.1708999127149582,0.1715283989906311,0.153170645236969,-0.18235072493553162,0.11387873440980911,-0.10430383682250977,-0.01786811277270317,-0.10141565650701523,-0.014444482512772083,-0.09375600516796112,-0.12260236591100693,0.09412454813718796,0.11449681967496872,0.14976118505001068,0.08724348992109299,0.15529917180538177,0.1318439245223999,-0.19379624724388123,0.0958009883761406,0.16264507174491882,0.10237181931734085,0.18031935393810272,-0.13819308578968048,0.1454441100358963,-0.13367749750614166,-0.029472656548023224,0.14799192547798157,-0.029962068423628807,0.16210828721523285,-0.15814873576164246,-0.16991500556468964,0.053523097187280655,0.048544321209192276,0.1840805858373642,0.10607574880123138,0.05131905525922775,0.036179300397634506,0.16425542533397675,-0.08673199266195297,0.11793872714042664,-0.1210462749004364,-0.01903812773525715,0.01690615713596344,-0.10836154222488403,0.1063731387257576,-0.021828481927514076,-0.0885559618473053,0.13644194602966309,0.17287924885749817,0.10230016708374023,0.12455963343381882,-0.15986748039722443,-0.18187271058559418,-0.08263276517391205,-0.0762200802564621,-0.10380980372428894,-0.05616816133260727,-0.06112755835056305,-0.15525831282138824,0.052734941244125366,0.1353498250246048,0.01076879259198904,-0.18640287220478058,0.053362999111413956,-0.10276524722576141,-0.01871500536799431,-0.024195708334445953,-0.09521687775850296,0.154240220785141,0.17395322024822235,-0.07464874535799026,-0.12962310016155243,-0.03363308310508728,-0.15903829038143158,0.05412253364920616,0.10495955497026443,-0.04749570041894913,-0.19946667551994324,-0.0492648109793663,-0.1860504448413849,0.04645099490880966,0.06490431725978851,-0.006285032723098993,-0.09084732085466385,0.035883888602256775,-0.045080818235874176,-0.049313563853502274,-0.1511198878288269,-0.017482230439782143,-0.022479625418782234,-0.14428286254405975,-0.12531797587871552,-0.18421807885169983,-0.06426480412483215,-0.15222924947738647,-0.07204484194517136,-0.13612912595272064,0.09382647275924683,0.1814994513988495,0.028308002278208733,-0.19863003492355347,-0.1644657850265503,0.09462349861860275,0.19130994379520416,-0.13577425479888916,-0.19787640869617462,-0.11898445338010788,-0.03735988959670067,0.1437074840068817,0.04816456511616707,-0.17787717282772064,0.024500662460923195,-0.06020856648683548,-0.0054776351898908615,-0.033901963382959366,0.1025591790676117,-0.011357363313436508,0.10591284930706024,-0.1443447321653366,-0.11184650659561157,0.10056208819150925,-0.09074030816555023,0.08598991483449936,-0.011104987002909184,0.18398843705654144,0.17943981289863586,-0.09212197363376617,-0.020772991701960564,0.18829326331615448,0.1113453060388565,0.0929543748497963,0.04292692616581917,0.08949583023786545,-0.05233671888709068,-0.16788779199123383,0.0274805948138237,-0.016994575038552284,0.13035832345485687,0.04423614591360092],[-0.1879754364490509,-0.1697845160961151,0.08785093575716019,0.10407063364982605,-0.07348250597715378,0.1321377456188202,-0.15081822872161865,0.027127807959914207,-0.18896448612213135,0.048738956451416016,-0.1469780057668686,0.1503448635339737,0.023444857448339462,0.03847155347466469,-0.19166898727416992,0.16140925884246826,0.08836451917886734,-0.058406829833984375,-0.08438407629728317,-0.19706377387046814,-0.029392855241894722,-0.042771004140377045,0.10015100240707397,0.18441908061504364,-0.1696804016828537,-0.13567043840885162,-0.05755389481782913,0.12469156831502914,0.08867150545120239,0.1637660264968872,0.025640953332185745,0.0449029877781868,-0.10731057077646255,-0.12767823040485382,-0.19910907745361328,-0.0841144397854805,0.023732030764222145,0.18893510103225708,0.13310188055038452,-0.162061870098114,-0.04329840466380119,-0.014757917262613773,0.12990440428256989,-0.051453735679388046,-0.027958299964666367,-0.1346142441034317,-0.14166687428951263,0.12537646293640137,0.0650014579296112,-0.18863895535469055,-0.1424366682767868,-0.09533165395259857,0.14232410490512848,0.1778489351272583,0.0381760448217392,-0.09898991137742996,0.024174897000193596,-0.13485823571681976,0.06759992241859436,-0.188258096575737,-0.03434973955154419,-0.1948033571243286,-0.026065301150083542,0.09929680079221725,0.07674019038677216,0.1593908816576004,-0.009099856950342655,0.11631738394498825,-0.029703481122851372,0.09313245117664337,0.06206991523504257,0.14986947178840637,0.140432670712471,-0.009510492905974388,0.15022455155849457,-0.07426148653030396,0.1824304163455963,-0.08706493675708771,0.19675180315971375,0.08040142059326172,0.05038723722100258,-0.09911378473043442,0.01370598841458559,0.18654924631118774,0.1928732693195343,-0.054630693048238754,0.13587452471256256,-0.012170698493719101,0.09297380596399307,0.06423556059598923,-0.06283167749643326,-0.1981123983860016,0.15513485670089722,-0.182844877243042,-0.014858931303024292,0.013730380684137344,0.03128902614116669,-0.15038470923900604,-0.029302936047315598,-0.17459209263324738,0.1712162345647812,0.042827483266592026,0.08232186734676361,-0.10670589655637741,-0.08539263159036636,0.11528409272432327,0.03882146254181862,-0.17427939176559448,0.08086053282022476,0.0771850049495697,0.019431522116065025,0.13687539100646973,0.0940910279750824,0.024037593975663185,-0.012194095179438591,0.143452987074852,-0.0489877350628376,-0.057573895901441574,-0.13791923224925995,-0.0843736082315445,0.1861327439546585,0.1667541116476059,-0.052873026579618454,0.09092698246240616,0.11356397718191147,0.09994854032993317,-0.011964223347604275,-0.09153974056243896,0.16666406393051147,-0.022547870874404907,-0.01851697266101837,-0.08911236375570297,-0.04393642768263817,0.01896589621901512,0.18307653069496155,0.037823814898729324,0.10151360929012299,0.1917143166065216,0.001963602611795068,-0.028892798349261284,0.16474804282188416,-0.010698891244828701,0.18607355654239655,-0.030325990170240402,0.06810766458511353,0.08904130756855011,-0.08899691700935364,0.14783039689064026,0.17299239337444305,0.004947838839143515,0.174528568983078,-0.1401769071817398,-0.17118068039417267,0.13351869583129883,-0.11837096512317657,0.08527795225381851,0.1063932552933693,-0.1254810094833374,-0.09934727102518082,0.13913042843341827,0.05872984975576401,0.07335666567087173,0.05515449866652489,0.08616060018539429,-0.009650591760873795,0.018168987706303596,0.06882335245609283,-0.11625528335571289,0.015255597420036793,0.0948600322008133,-0.16701430082321167,0.02058625966310501,0.040351178497076035,-0.004099659621715546,0.16548876464366913,-0.04758758842945099,0.13458940386772156,0.025988299399614334,-0.0024938001297414303,-0.1984412670135498,0.04457220435142517,-0.036232806742191315,-0.10321570187807083,-0.035179223865270615,-0.13811171054840088,0.06110095605254173,-0.014085962437093258,0.09247448295354843,0.15863457322120667,-0.03731807693839073,-0.09881068021059036,-0.145840123295784,0.10691121220588684,0.15621104836463928,0.17270664870738983,-0.03138750046491623,-0.14589954912662506,-0.06411933153867722,-0.11169245839118958,-0.15021483600139618,-0.00670974887907505,0.029349612072110176,0.013437289744615555,0.1163230836391449,-0.020929565653204918,0.1577269285917282,0.18300653994083405,-0.014627485536038876,-0.08135410398244858,0.0022912852000445127,0.033040158450603485,0.006359174847602844,0.11897849291563034,0.07483453303575516,0.058766499161720276,-0.1566571146249771,0.07106509804725647,0.07272692024707794,0.1735810786485672,0.08077292144298553,-0.16019175946712494,0.1274375170469284,-0.004987635649740696,0.19976799190044403,-0.10814858973026276,0.12113866955041885,0.06563078612089157,-0.11822041124105453,0.19990569353103638,0.1213192492723465,-0.19081328809261322,0.014856589026749134,-0.19707991182804108,0.10351826250553131,-0.028648534789681435,0.16479207575321198,-0.09488457441329956,0.10714168846607208,-0.1120806336402893,-0.13343383371829987,-0.0008714948198758066,0.014465134590864182,-0.1910449117422104,-0.14380651712417603,0.0968862846493721,0.17016002535820007,-0.02288302779197693,0.02540631592273712,-0.0073259067721664906,-0.16185589134693146,-0.16019466519355774,-0.013284279964864254,-0.06591963022947311,0.0679665356874466,0.10413757711648941,-0.09334009885787964,-0.08140178769826889,0.08150709420442581,0.04299446940422058,0.16011843085289001,0.19246289134025574,-0.15679426491260529,-0.14289161562919617,-0.07042896747589111,-0.19222772121429443,0.10070689022541046,0.144001305103302,-0.035152602940797806,0.02089930698275566,-0.14893890917301178,0.12879355251789093,-0.07085330039262772,0.08801642805337906,0.08226458728313446,-0.04225295037031174,-0.06159527227282524,-0.15253552794456482,-0.03178223595023155,-0.1427202969789505,0.015821922570466995,-0.13909490406513214,0.1393127590417862,0.13039900362491608,0.13799647986888885,-0.07266309857368469,-0.05927935615181923,-0.1607731729745865,-0.1554320603609085,-0.08851321786642075,0.17609961330890656,-0.10905063152313232,0.08960945159196854,0.014328338205814362,-0.048109374940395355,0.05894066393375397,-0.0052177561447024345,0.003052489599213004,-0.1305328905582428,-0.18729501962661743,-0.19377073645591736,0.14970876276493073,-0.11171361058950424,0.04554479196667671,-0.15942612290382385,0.051519352942705154,0.05640101805329323,0.04897692799568176,-0.029818423092365265,0.10339465737342834,-0.008847721852362156,-0.09703340381383896,-0.17360466718673706,0.18416041135787964,-0.06310087442398071,0.03014451079070568,0.08689801394939423,0.03613465651869774,-0.08684680610895157,0.16965867578983307,-0.14883215725421906,0.03276216238737106,-0.01925555244088173,-0.1614980250597,0.19843199849128723,0.0041110701858997345,-0.12216642498970032,0.09941259026527405,-0.014841367490589619,0.1144951805472374,-0.029459865763783455,-0.05281662940979004,0.1341148316860199,-0.0895768254995346,0.13876669108867645,0.06380649656057358,0.15035168826580048,0.06486868113279343,-0.09235591441392899,0.04561001807451248,-0.18974104523658752,-0.15621325373649597,-0.19213923811912537,-0.06122954934835434,-0.09133300185203552,-0.11596345156431198,-0.07108797132968903,-0.10178163647651672,0.1717008799314499,0.09647872298955917,0.19204658269882202,-0.058508630841970444,-0.13182736933231354,0.18384197354316711,-0.03736673668026924,0.1364506334066391,-0.19741007685661316,0.035938560962677,-0.041559744626283646,-0.10839883238077164,0.08702883124351501,0.07480745762586594,-0.16319365799427032,0.06421728432178497,0.056693367660045624,-0.17410676181316376,0.0997609943151474,-0.05681682005524635,-0.09160158038139343,-0.012712935917079449,-0.03288200497627258,0.02446320466697216,-0.02595517411828041,0.14950862526893616,0.08376403152942657,-0.09712061285972595,0.025600118562579155,-0.109786756336689,-0.02865530177950859,-0.04789170250296593,-0.0482713021337986,-0.07388580590486526,-0.18842452764511108,0.017546361312270164,-0.17808592319488525,0.13738662004470825,0.05700981616973877,-0.17996785044670105,0.12879517674446106,-0.057137321680784225,0.006668236572295427,0.1014523059129715,0.0018443475710228086,-0.12912996113300323,0.14421722292900085,0.14215441048145294,-0.09159449487924576,0.11994701623916626,-0.03228684142231941,-0.09892735630273819,0.13258810341358185,-0.03419017791748047,0.10277526080608368,-0.16463099420070648,-0.19622650742530823,-0.13378900289535522,-0.06934168189764023,-0.01584009826183319,-0.10659699141979218,-0.002233019331470132,0.10910341888666153,0.08583799004554749,0.09047388285398483,0.08372410386800766,-0.030396586284041405,0.10660987347364426,-0.06821031868457794,-0.1619863212108612,-0.06721963733434677,-0.0666620209813118,-0.19170141220092773,-0.1204862892627716,-0.1512550711631775,-0.06931345164775848,-0.19907625019550323,0.01086363010108471,0.1415160894393921,0.15001501142978668,-0.07011745125055313,0.18896709382534027,-0.009622756391763687,-0.15490299463272095,-0.05448359251022339,-0.004994381219148636,0.04862397909164429,-0.07541248202323914,0.05530683696269989,-0.023535603657364845,0.1845351755619049,0.09911080449819565,0.05147804692387581,0.19184422492980957,-0.15582336485385895,0.04561760276556015,-0.09577886015176773,-0.1677277684211731,0.04201577976346016,-0.03780675306916237,0.17109905183315277,0.1853049099445343,-0.05767582729458809,-0.08907242119312286,-0.15955638885498047,-0.09352001547813416,0.056893300265073776,0.08895642310380936,0.08910306543111801,-0.08444474637508392,0.16188983619213104,0.02339359000325203,-0.19463308155536652,0.0061860112473368645,-0.18275634944438934,-0.17284271121025085,0.1315048635005951,-0.0017430433072149754,-0.1876533180475235,-0.1259680539369583,-0.184381902217865,0.047221552580595016,0.1740819662809372,0.02851843275129795,-0.032549042254686356,0.16513358056545258,-0.14967161417007446,-0.0646316260099411,-0.19326989352703094,0.09280981868505478,-0.09323754161596298,0.020296690985560417,-0.08528029918670654,0.09825513511896133,-0.1894797831773758,-0.15761849284172058,-0.01908262073993683,-0.08518537878990173,-0.043268851935863495,0.028383100405335426,0.040360089391469955,-0.11456245183944702,0.16056448221206665,0.021682756021618843,-0.18850843608379364,-0.10630648583173752,0.0016497478354722261,0.1441626250743866,0.11470988392829895,0.12394141405820847,-0.10964812338352203,0.0492992103099823,0.17845436930656433,0.05237368494272232,-0.08818154036998749,-0.069430410861969,0.008360031060874462,-0.07486254721879959,-0.04189378395676613,0.06243365257978439,0.015056529082357883,0.11544947326183319,-0.13693617284297943,-0.14221253991127014,-0.12468818575143814,-0.06213758885860443,-0.010202833451330662,0.0778496041893959,0.11010614037513733,-0.03519286587834358,-0.14571106433868408,0.08922304958105087,-0.05744897201657295,-0.12994085252285004,-0.09861572831869125,0.14918163418769836,0.008354191668331623,-0.154389888048172,0.1888265758752823,0.11549950391054153,-0.1388787180185318,-0.1301075518131256,0.018207335844635963,0.07957811653614044,0.16549481451511383,-0.13316796720027924,-0.16686315834522247,0.14613069593906403,0.1351795792579651,-0.07338045537471771,0.1678706854581833,0.13712717592716217,0.002822720445692539,-0.1432284116744995,0.05522175133228302,-0.13491350412368774,-0.10476785898208618,-0.10065454989671707,-0.17750144004821777,-0.08489692211151123,0.08557314425706863,-0.10135456174612045,0.17093722522258759,0.1552574187517166,-0.12108491361141205,-0.06997434794902802,0.053712259978055954,-0.09495311975479126,0.07124153524637222,-0.09033823013305664,-0.0033109216019511223,-0.0563071072101593,-0.06789319962263107,0.030651694163680077,-0.08765266090631485,-0.04779335483908653,0.06538684666156769,-0.15159636735916138,-0.09615826606750488,-0.1508345901966095,0.1448066532611847,0.17634516954421997,0.013632184825837612,0.19870635867118835,-0.10151451826095581,0.1864888221025467,-0.19998671114444733,-0.18860797584056854,-0.062041692435741425,-0.12677524983882904,0.08708838373422623,-0.05757204070687294,-0.07137976586818695,-0.030848341062664986,0.12003827095031738,-0.08499546349048615,-0.015952542424201965,-0.05003588646650314,-0.12143697589635849,0.16864483058452606,0.08895079791545868,-0.04299606382846832,0.0059406934306025505,-0.19593754410743713,0.005921745672821999,0.18077214062213898,-0.08210686594247818,0.03092528134584427,-0.13022832572460175,-0.0052003017626702785,-0.1729963719844818,-0.06271051615476608,-0.11981804668903351],[0.17010067403316498,0.17440076172351837,0.1567326933145523,-0.19945205748081207,0.00551387807354331,-0.18380101025104523,-0.035809047520160675,0.09210214018821716,0.13306942582130432,0.03199915960431099,0.12008912861347198,-0.04529699310660362,-0.18872635066509247,0.16125229001045227,0.031102202832698822,0.03336915373802185,0.03895195201039314,0.15811242163181305,-0.06555189192295074,-0.1961224228143692,-0.03360680118203163,0.04558788612484932,-0.13364726305007935,0.015469944104552269,0.16696049273014069,-0.16414205729961395,-0.10677224397659302,0.13047055900096893,0.19995804131031036,0.12421020865440369,-0.048062119632959366,0.022658830508589745,0.10700421780347824,-0.11348064243793488,-0.11201554536819458,-0.023814702406525612,0.1416693925857544,-0.13281390070915222,0.18277248740196228,0.11729331314563751,-0.17138241231441498,0.01047012209892273,-0.022921757772564888,0.051895491778850555,0.13801489770412445,-0.05615519732236862,0.07627173513174057,-0.14397969841957092,0.13427983224391937,0.036305636167526245,-0.0862797275185585,-0.03301364555954933,-0.16355203092098236,0.19111859798431396,0.1256193220615387,-0.09879034012556076,0.07287169992923737,0.160877987742424,-0.1280275136232376,0.11126294732093811,-0.19189324975013733,0.19482013583183289,-0.13828212022781372,-0.0008696249569766223,-0.11515138298273087,-0.14568769931793213,-0.14453886449337006,-0.17273296415805817,0.1427152156829834,-0.005740751512348652,-0.12546999752521515,-0.019742578268051147,-0.05477914959192276,-0.09005506336688995,-0.009445219300687313,