{"type":"NeuralNetwork","sizes":[9,4,1],"layers":[{"weights":[],"biases":[]},{"weights":[[-0.3918762803077698,-0.16571567952632904,-0.15569613873958588,0.4817714989185333,0.614012598991394,0.488943874835968,-0.22895246744155884,-0.49722814559936523,-0.40568259358406067],[0.15875445306301117,0.06460048258304596,-0.1382264494895935,-0.25967729091644287,-0.11465878039598465,-0.10608504712581635,0.11973968893289566,0.05588729307055473,0.326719731092453],[0.13342390954494476,-0.16746433079242706,-0.11319838464260101,-0.10933789610862732,0.014094964601099491,-0.17800214886665344,0.1836051046848297,-0.17553313076496124,0.15583571791648865],[-0.012324633076786995,-0.11685571819543839,0.10617389529943466,0.10177214443683624,0.11031795293092728,0.07427725940942764,0.07713214308023453,-0.02100219763815403,0.07504908740520477]],"biases":[0.05566602945327759,-0.19335894286632538,-0.16980522871017456,0.06468666344881058]},{"weights":[[-4.399848461151123,0.9124327898025513,0.057057540863752365,0.8425717353820801]],"biases":[0.8196365833282471]}],"inputLookup":null,"inputLookupLength":0,"outputLookup":null,"outputLookupLength":0,"options":{"inputSize":0,"outputSize":0,"binaryThresh":0.5,"activation":"sigmoid","leakyReluAlpha":0.01,"iterations":1000000,"learningRate":0.001},"trainOpts":{"activation":"sigmoid","iterations":1000000,"errorThresh":0.005,"log":true,"logPeriod":10,"leakyReluAlpha":0.01,"learningRate":0.001,"momentum":0.1,"callbackPeriod":10,"timeout":"Infinity","beta1":0.9,"beta2":0.999,"epsilon":1e-8}}